198 100
the 0.005848326 -0.03840393 0.009917498 0.041733827 0.049490068 0.049109016 -0.023260986 -0.025432063 -0.014865708 0.04911864 0.00208769 0.04960883 -0.017020714 0.036370065 0.017425466 0.004631769 -0.042123735 -0.022317791 -0.02280724 -0.014910303 0.01760142 0.008423068 -0.003820967 -0.0049906485 0.013630036 0.023475002 0.023279991 -0.010339282 -0.031279884 0.035989914 0.035445858 0.0010124817 -0.027947355 1.0799617e-05 0.038023267 -0.036257636 0.046988193 0.043180335 0.014541876 -0.015454672 0.035765518 0.01384021 0.020795885 -0.029567301 0.0195061 -0.029356254 0.00050441176 -0.038638115 0.02123629 0.024055157 0.02992611 0.03620776 -0.02198173 -0.034048844 0.017136823 -0.042224586 -0.035168327 -0.02722838 0.013942789 -0.014323402 -0.01801505 -0.006168522 -0.020597422 0.022153381 -0.04688088 0.037274804 -0.033707455 0.04244555 0.03305861 -0.02219267 -0.00039013475 0.005382072 -0.015083659 0.041633073 -0.0032494552 0.029296767 -0.007100571 0.029349778 -0.00366484 -0.018244326 0.03051423 0.016913664 0.039401416 -0.0055938363 0.04025722 -0.007694982 0.02079704 -0.008226026 0.022565272 -0.04108877 0.0065634474 -0.01806109 0.0010253303 -0.016707469 0.011064123 -0.01825849 0.022797119 -0.022976471 0.016821448 0.013337325
of 0.047333527 -0.022980679 -0.0473225 -0.049523342 0.03178587 -0.012984466 0.047766853 -0.011864185 0.023651693 -0.001038421 0.016694177 0.035060767 0.016553614 -0.040757667 0.0038443692 0.040769782 0.0393749 0.029996838 0.048363995 -0.012615155 0.025132123 -0.025687361 0.006068457 0.031200733 -0.037802875 -0.04234743 -0.012532879 -0.021052862 -0.013608418 0.021678101 -0.009540319 0.014902186 0.036893997 0.023707334 -0.016065072 -0.039709114 0.037035834 0.009234726 -0.0070612542 0.019399825 -0.005047012 -0.002803482 -0.018128205 -0.007748116 0.046760265 -0.04340873 0.036235955 -0.04986174 0.032525394 -0.034216918 -0.04910014 -0.011386193 -0.016478859 -0.024255002 -0.034167603 0.012311708 -0.023234403 -0.04231832 -0.018227361 -0.026593221 -0.025203133 -0.022489417 0.028433513 0.026099209 0.048918758 -0.040848304 0.03302932 -0.017276157 0.008010052 -0.017151713 0.023895357 -0.0010357983 -0.01271205 -0.012649976 -0.0193761 -0.015495919 0.043366525 -0.03569176 0.036591474 0.0352067 0.02418628 -0.031492904 -0.04946507 0.038536217 -0.024933768 0.04395857 0.003602527 -0.045247186 0.014698569 0.033347856 0.03888477 -0.0461401 0.033013765 -0.0156474 0.004720904 0.029789302 -0.0025258064 -0.005853247 0.03367621 -0.033892274
influenza 0.01526631 -0.025671793 0.0149776675 -0.004658185 -0.011968613 -0.038305413 -0.0093456395 -0.044184305 0.02701566 -0.028267443 0.013893787 0.033656802 -0.006748557 0.0060940012 0.005963873 -0.0036007985 0.013117801 -0.041917764 0.027455393 -0.012080826 -0.046377778 0.049789738 -0.047574606 0.039323617 -0.043589305 -0.011464965 -0.02773881 0.008066844 0.03481022 0.04247347 0.022404883 0.047653724 0.019675244 -0.038737714 -0.0025133975 -0.030114818 -0.034542155 0.0017648563 0.015518252 -0.020050837 0.034037802 -0.02835877 -0.017789364 0.014703225 0.0019051805 0.0324942 0.0013206378 -0.029512143 0.03738003 -0.04824064 -0.010828555 -0.04692134 0.030466285 0.044560384 -0.049824383 0.017833028 -0.043420818 0.0026175976 0.011317361 -0.04717375 -0.0023299344 -0.0032517426 -0.030968595 -0.02914244 -0.010581039 0.015698526 -0.01466291 0.0011395924 0.047600064 -0.006129347 0.004030727 0.028729979 0.03962833 0.0066338778 0.04931737 -0.048304822 0.027865324 -0.03661249 0.012250684 0.042382587 -0.045438506 -0.014889397 0.039768267 -0.017302692 -0.012009669 0.0126752 -0.03800883 -0.031519733 0.02774224 -0.010830484 -0.020612646 -0.0418082 0.0043718703 0.04675888 -0.049800098 0.018542085 -0.014650129 0.027817857 0.042253856 -0.04200535
covid 0.019420374 -0.00813695 -0.010356821 0.0037702322 -0.0009022355 -0.00158602 0.04831091 -0.04455426 -0.04240451 -7.2181225e-05 -0.0421574 0.03555843 -0.019887079 0.042264532 -0.025041377 0.030434433 0.010709964 -0.023098482 0.011188615 0.022958431 -0.030775702 0.018642101 0.019077849 0.011149287 0.04501039 -0.023580313 0.024623726 0.04383452 -0.02938143 -0.0012710094 -0.038888227 -0.006144773 0.0071426257 -0.024097621 -0.02071457 0.029304776 0.034350883 0.020790089 -0.015231121 -0.018491149 0.045861755 -0.026917411 0.022856977 0.041991893 0.038521055 -0.022350574 0.01385368 0.017466757 -0.016168691 0.0160782 0.048579756 -0.047974896 0.020996872 -0.009063341 -0.044729818 0.025227752 -0.035720147 0.0021669492 0.026920643 0.03830396 0.026683483 -0.034748007 -0.048732676 0.020255614 0.04577032 0.02220944 -0.04294889 0.0015550256 -0.041521143 0.020805504 -0.026907338 -0.0033448339 0.031236853 -0.032338858 -0.0054021254 0.028827261 0.005012594 0.015215863 0.04899812 0.025285337 -0.049062993 -0.01628536 0.006575905 0.03459655 0.041637506 -0.0061965585 -0.014562618 -0.028045261 0.014314596 -0.023566091 -0.034169246 0.03615905 0.040832136 -0.03251276 0.00024668127 -0.013479732 -0.015975773 0.04447825 -0.011672415 -0.00570805
19 0.045877162 -0.020638144 0.011320483 0.007228039 0.046705652 0.014045838 0.022204805 -0.04413377 0.013586078 -0.046895564 0.009092938 0.02947488 -0.009700883 0.048350085 -0.011337031 -0.014347207 0.044995118 0.0030826926 0.024817456 -0.01160245 0.023751307 -0.0080796 0.029280629 -0.031002546 0.048269916 0.032223348 -0.04213475 0.017036702 0.029261742 -0.0124616735 -0.042030383 -0.02608174 -0.019273877 -0.0015749708 0.013880733 -0.0041559823 -0.015466213 -0.0013352856 -0.047962952 -0.017668486 -0.0016301759 0.025899235 0.0406647 0.03494214 -0.008606076 0.032863986 -0.011824548 0.021624412 0.0036535263 -0.018042158 -0.01061945 0.0057474 -0.01708715 -0.0051375143 0.045473088 -0.0013086908 -0.007828556 -0.013052605 -0.010501422 0.0010870211 -0.026162399 -0.0026840195 -0.01651726 -0.017826904 -0.014372684 -0.032235622 0.028696526 0.045657184 0.044168103 0.047852363 -0.041056477 -0.0333848 0.0493876 -0.017688334 -0.02453593 -0.024187123 0.019182075 -0.046726204 0.011294376 -0.031817116 0.040200207 0.010881782 -0.039899956 -0.00707227 0.047345806 -0.007688988 0.0142823495 0.005602777 0.0038445108 -0.03045305 -0.04025265 0.019977544 0.0497196 -0.01461209 -0.015126061 -0.028809203 -0.004442014 -0.03894825 0.023119856 -0.020754492
virus 0.032451477 -0.036884904 -0.0072572455 0.010013055 -0.029191172 0.00914786 -0.018900096 0.012180198 0.03513409 0.047153566 0.048637222 0.003187418 -0.041808285 0.007332336 0.035931062 0.0023697019 0.011859141 0.016831543 -0.031606127 0.04878867 -0.028302109 0.005977489 -0.02630936 0.042982493 0.038825486 0.042641077 0.015622485 0.020676065 0.046140064 0.020283986 0.042033765 -0.0120504275 -0.026679397 0.0020902753 0.017039623 0.006743096 -0.030174792 -0.040367343 -0.0026413314 -0.027594555 -0.018494476 -0.007954549 -0.011541568 -0.023625482 0.044865217 0.00426241 -0.048872065 0.034075882 -0.015220426 0.017997686 -0.010077417 -0.013087474 -0.04391061 -0.044864118 0.033654545 -0.039303053 0.04724616 -0.028273 -0.011697531 0.03824642 0.046510804 0.008447565 0.018685903 -0.015396319 -0.012167692 0.030561123 -0.03560988 0.011281647 0.040978935 -0.049635876 -0.001193773 -0.03642099 0.04210073 0.0041839853 0.04721084 0.047143113 0.034797 -0.016194366 -0.039825417 0.013511073 -0.0027337186 0.004811704 0.030582514 0.04581667 0.03513621 -0.020041978 0.031505857 0.004781842 0.044343855 -0.01511078 0.04493967 0.012807164 -0.0059574246 0.02503958 0.019695941 0.03390633 -0.04262034 0.030819844 0.011600219 -0.03595674
for -0.042043984 -0.0211164 0.037639406 0.03608853 -0.007686317 -0.0011443272 0.014758084 -0.041489244 0.010145772 -0.031331018 -0.042559374 0.045357157 -0.011715364 -0.00063955784 -0.020461548 -0.00071219355 0.038759742 0.04677597 0.01433355 0.027685475 -0.044279516 -0.016455114 0.031752575 0.048197974 -0.03319315 0.03265694 0.029414777 -0.013201334 0.02661581 0.035436045 -0.026113058 -0.00036014244 0.014872637 0.009866893 0.03151324 0.021705475 0.017198656 -0.014621057 0.035229865 0.02951448 -0.036434818 -0.0022962466 0.021136854 0.019867685 0.013085153 -0.03811294 -0.043932177 0.002189599 0.02328613 -0.0377146 -0.023900831 -0.028910875 -0.00642059 -0.02330333 -0.036703814 0.025659468 0.046087053 -0.044744182 -0.029648054 -0.034688484 -0.040485106 -0.04695654 -0.0056777224 -0.049349558 -0.032515276 -0.025086438 -0.011521064 -0.03469696 -0.036527824 0.022694971 0.04324187 -0.018396307 -0.021943713 0.0020933747 0.031286966 0.01850276 -0.003311228 0.013085458 -0.030859888 0.0038512833 0.035946872 -0.023979211 0.014611375 0.011362184 -0.040842593 0.03545698 -0.03292333 -0.0011153929 -0.0015557632 0.031786088 -0.026415205 -0.027239788 0.04388051 0.0046107993 -0.042925347 0.024493907 -0.027549088 0.029950868 0.026444066 -0.031494677
transmission 0.034485545 0.0034469739 0.00023775175 -0.01728221 -0.034980167 0.0014975443 0.030738283 0.03277803 0.037396464 0.034857478 0.018258337 0.044051576 -0.036171637 -0.04082849 0.033274483 -0.04822048 -0.04003023 -0.0009812601 -0.009099208 0.02983382 -0.026903545 0.031108383 -0.0050853603 0.0039187074 0.044184003 -0.045256376 -0.04832678 -0.02264719 -0.049375296 0.03334483 0.047096316 -0.0018566735 0.018102955 0.0043986067 0.022940207 -0.017289795 -0.016551532 -0.025738835 -0.034535028 0.025756348 0.035357866 -0.023521721 0.04764661 0.024612676 -0.022392118 0.019432914 -0.014413737 -0.01896274 -0.046476495 0.017872635 -0.019195318 -0.027903749 0.0068255067 0.02216841 0.028793786 0.007647086 0.037144687 0.011173535 -0.038188886 -0.020670617 0.012727346 0.028523747 0.0032001957 -0.009254314 -0.014721453 -0.025474703 0.035473634 0.039037276 -0.029145097 -0.04196608 -0.003035508 0.026857603 -0.011817135 0.047519807 -0.031226277 0.0023846999 0.009157192 0.0008960143 0.034650635 0.023951206 -0.037912272 -0.0042873025 0.036988404 0.018906485 -0.028110564 -0.015650354 -0.033361543 0.019686822 -0.0076666474 0.03563681 0.018447388 -0.010178912 0.049505178 -0.0012746342 -0.029060448 -0.00225655 0.009256732 -0.0076907985 0.04513346 0.027331505
is -0.036567282 -0.014617167 0.029551532 0.023871314 -0.023840547 0.021661367 0.036207702 0.026486699 0.016492222 -0.033947337 -0.038205873 -0.015702449 0.0065768138 0.026570048 0.004822742 0.011017978 0.044828977 0.030105982 -0.033756554 -0.035495363 0.03868265 0.03611858 0.046978954 0.02111372 -0.021858681 -0.012593914 -0.04284767 0.03793483 0.00066585466 -0.016554154 0.0079224 -0.040826894 0.023987267 -0.004902661 0.0015486851 0.011614788 -0.032149136 -0.0041699633 0.031125654 0.040789653 0.025850248 -0.03960531 0.03688978 0.045569267 -0.011041213 0.038611803 0.023479078 0.014497448 -0.039972235 0.04673494 0.0068099983 0.02424829 -0.04847714 -0.023984944 -0.02085873 -0.04451078 -0.046969593 0.030670691 -0.033619154 0.04882851 0.045168962 0.023626652 0.028914396 -0.03712491 0.016852524 0.017706882 -0.02041092 -0.007138837 -0.03830836 -0.015379 0.004715096 -0.021644128 0.04080713 -0.016145527 -0.02170136 -0.0014791004 -0.024052858 -0.021850025 -0.03745835 0.030852068 0.008090235 -0.04712546 -0.026522947 0.04551058 -0.01476761 -0.010815762 -0.048549484 0.011034489 0.030566622 0.049313497 0.025317024 -0.0044492856 0.049680118 0.020306718 -0.005769264 -0.019047916 0.0060184225 -0.017823778 -0.017935645 -0.03875352
to -0.027580535 -0.010214198 -0.031841375 -0.021381034 -0.023711313 -0.03629136 0.045413617 0.034275603 0.04747555 0.0036535375 0.027655352 0.007247448 0.0112278685 0.017857227 0.006512571 -0.021786416 -0.01376326 0.04139174 0.007968746 -0.021943284 0.029097464 0.008883357 0.048783336 -0.015254892 0.0047836676 0.016443435 0.046283636 -0.026857877 0.023723628 0.016019914 -0.028973544 -0.024120843 -0.005332507 -0.04298363 0.010952998 -0.02837726 -0.011944294 -0.017833948 0.0031512156 0.012518194 0.011905026 -0.00623399 0.027582917 0.021978047 -0.024342358 0.0062223896 -0.041120064 0.03794085 0.021206293 -0.020328904 -0.030905832 0.017803911 0.00401609 0.044824947 -0.0008768216 0.009923838 -0.040362418 -0.030029941 -0.028892612 -0.028328478 0.020354185 0.038994443 0.033352327 -0.04165988 -0.008651674 0.047989335 0.017102193 0.027793173 -0.022409488 0.04545841 -0.009389617 0.001445651 0.01376741 0.0063296184 -0.028854037 0.025163535 -0.0155366175 -0.016115189 -0.011429895 -0.047604967 -0.02932017 0.021024738 -0.026958633 0.011358034 -0.04675454 -0.035921406 -0.008393418 -0.048460316 0.04095075 0.02351221 -0.006727673 -0.022219433 0.02170204 0.011419881 0.0052031055 0.023196373 0.035438184 0.03479438 -0.03542795 -0.022199858
a -0.021295263 0.029091489 0.046482433 0.013277117 -0.028022742 -0.04884682 -0.016527247 -0.0055654533 -0.042512204 -0.0063993447 -0.003872741 0.04704069 0.047884014 0.0115432255 0.029603366 -0.041870117 -0.048726548 0.040277433 -0.04434904 -0.01959405 0.017162826 -0.040918767 0.040688347 -0.007312037 0.035241555 0.026540283 0.033980165 0.009718381 -0.0061578155 0.026491467 0.04621819 -0.0023602024 0.0399076 0.04156727 -0.025542725 0.033183817 -0.021081686 0.009418666 -0.027111113 0.032861385 -0.003940977 -0.0074274912 0.021440301 -0.02277478 -0.038751923 -0.007825255 0.019970667 0.033903573 -0.049310435 0.012028299 -0.0075506456 -0.0041771755 0.02000289 0.03779241 0.030067276 -0.016017675 0.040511932 0.024311367 -0.020158386 0.04645181 0.029966738 -0.012443375 0.019937817 -0.03551302 -0.048373796 -0.04962337 -0.002872251 0.03259823 -0.027468909 -0.0190207 0.010238051 -0.030666709 -0.0123909 0.009039141 0.012337256 -0.012887418 -0.023507405 0.0075322166 0.03617472 0.021713082 -0.0377658 -0.028054535 -0.04802796 0.020388473 0.029295538 -0.016174853 -0.008772314 -0.01624491 0.029218826 0.025853757 -0.0191898 -0.014047336 0.03155159 0.011282645 0.009819161 -0.0145277865 -0.014601506 0.029765692 0.04538298 -0.02454337
and -0.010925867 0.005081795 0.037976872 -0.03242283 0.03458679 -0.01994139 0.04832575 0.005648352 -0.046355046 -0.042359807 -0.016323376 0.029365968 0.023223232 0.030199897 0.025441635 -0.029747594 -0.028864253 -0.0005229935 -0.049046006 -0.032992054 0.038985994 -0.043463994 -0.039598167 0.016182233 -0.029852187 -0.03899603 0.0052205212 -0.026724542 -0.02147553 -0.039317824 -0.042758156 0.03371844 0.023377325 -0.01638173 -0.013595261 0.03978044 -0.031397477 -0.0057132617 0.027625922 -0.035891987 0.020962488 0.042644832 -0.032992102 0.038662408 0.036015663 -0.03851249 -0.030105079 -0.012385882 -0.02930491 0.0078071356 0.044612635 -0.016929042 0.03020772 -0.019239902 -0.015024602 0.03210752 -0.0054492727 0.032512438 0.0015869737 -0.018723141 0.047434162 0.012829948 -0.002624236 0.018175576 0.008757733 0.03109387 0.0031404123 0.046173718 -0.018700637 0.04333997 0.0108967535 -0.00040940195 0.027819607 -0.037713278 0.047843207 -0.041581176 0.026550997 0.016254876 -0.003161274 -0.029698206 0.027868975 -0.0022456273 0.023010697 0.031555798 -0.008555613 0.041676927 0.017736163 0.016887117 0.037192117 0.00938753 -0.049224507 0.005581498 0.017088901 -0.03406161 0.0076435804 0.04413147 0.011603929 0.042977598 0.023874495 0.00019137934
between -0.035806037 0.03947414 0.037846196 0.018810097 0.0010563023 -0.024854064 -0.018429957 0.0046791807 0.047914553 -0.043214586 0.006475199 -0.014029503 -0.034435906 -0.011394631 -0.03144022 -0.0045327656 0.0047245026 0.029637586 -0.0464919 0.023877766 -0.028842617 0.008979499 0.011916209 -0.028410066 0.013718855 0.044581342 -0.03318572 0.04874189 -0.00254035 -0.030474378 -0.02014165 -0.026506472 -0.02818445 -0.04927342 -0.015612148 -0.045476712 0.04740162 0.030386094 -0.04598811 -0.0028237104 0.0141992085 0.039676536 0.0018904917 0.008649576 -0.02552445 0.03580988 0.049487617 0.044729117 -0.02686404 0.022956561 0.030289318 0.0059840567 0.00771334 0.0025874488 0.026713941 0.016432535 0.037342634 0.002738513 -0.020566761 -0.009103548 0.0090765245 0.03388867 0.010533165 -0.03408389 -0.039057635 -0.03912114 0.026969243 0.028465454 -0.00258895 -0.048595857 -0.048159506 0.048546027 -0.02907889 0.01638167 0.04805604 0.023074213 -0.0010164604 -0.01256473 -0.015615761 0.025220547 0.034787025 0.016389314 0.0064591393 0.049953844 -0.007977556 0.03656054 -0.025746226 -0.027838899 0.023636702 -0.040554903 0.0303627 -0.01857407 -0.039024197 0.015252743 -0.010485303 -0.0071638227 0.008765757 0.042257857 0.0030124076 0.0009709373
time -0.013041891 0.033390556 0.0058570877 -0.029603375 -0.030185986 -0.012988437 0.0030425563 -0.0015067235 0.007925976 0.017715488 -0.011668719 0.042344157 -0.017774533 -0.04173678 0.018938456 0.017269943 -0.043977417 0.016639698 -0.004359998 0.016536508 0.045205746 -0.014872752 -0.018546473 -0.011187267 -0.03052907 0.006086886 -0.020300293 0.049159814 -0.022381533 0.036344875 -0.005583547 0.003309451 -0.016191982 -0.027188921 0.04300386 0.027087163 -0.028179241 -0.00027292967 -0.00215026 -0.0066222176 0.008030735 -0.0071999542 -0.04797777 0.003571868 0.00014184788 -0.025143731 -0.0041252 -0.021570457 0.014620189 0.044520188 0.04052714 -0.03361384 0.0121049285 -0.026281822 0.042706523 -0.027728165 -0.026324654 -0.0063933358 -0.012355793 0.02900238 0.029722344 -0.027369713 -0.023409164 0.041550923 0.01387148 -0.019653274 0.0052355416 0.010235202 -0.03449557 0.046159472 0.011924565 0.012995992 0.006094359 -0.015747346 -0.023258507 -0.016926907 0.041580822 -0.020592798 0.036099937 -0.035683714 -0.016335703 0.03521086 0.048280325 -0.037568033 0.0035686865 0.040550735 -0.049468674 0.048796568 0.044975113 0.014419589 -0.021663416 -0.021460772 -0.018705964 -0.021065403 0.0081316605 -0.034325935 0.0014865994 -0.02025708 0.01454008 -0.046524834
serial 0.046901774 0.021023523 -0.044029176 0.0181677 -0.03415914 0.019630324 0.049482908 0.02485672 0.028433595 0.0021527037 0.03484234 0.031975057 -0.039776374 0.039193932 -0.018902004 0.006515991 0.0005136952 0.007369507 -0.0045051575 -0.012746502 -0.0406271 0.03719637 -0.039787162 0.04761607 0.008471452 0.04076315 -0.03032787 0.04968906 0.040106032 -0.040093075 0.02332623 0.04782809 0.0016709082 -0.023640681 -0.01992401 -0.042359363 -0.036466636 0.001754202 -0.026427317 -0.019823922 -0.049469974 0.04697862 -0.015955567 -0.017835606 0.035982106 -0.001837194 0.034674834 -0.014323533 0.0074979067 -0.048461366 -0.030364692 0.01201744 0.014274944 0.0060507655 0.041839186 0.02097274 -0.01708553 -0.019928396 0.04075021 0.03257997 0.03619014 -0.018255759 0.0019419305 -0.041975774 0.04496992 -0.024717772 0.039480235 0.027202282 0.018492613 -0.041781522 0.03776506 -0.04914068 0.046178866 0.019262943 -0.0037806146 0.043345157 0.04593492 0.0064219236 -0.0076541677 0.0032901168 0.010153376 -0.013841081 0.0403536 -0.007586837 -0.046924423 -0.034298375 -0.0337288 0.0088377595 -0.027877737 -0.033884097 -0.03833691 0.03500234 0.04251382 -0.023496592 0.01689842 0.03267521 0.014240947 0.024814907 -0.036988962 0.0019695163
interval 0.015307356 -0.009843599 -0.035606373 0.026339542 -0.003409803 0.0029556975 -0.032543078 0.04157806 0.0270244 0.015581224 0.03556854 -0.040547945 -0.005990766 0.047245014 0.04286964 -0.0033697486 0.022923533 0.023073044 0.045517493 -0.008415747 -0.020315314 0.004027568 0.04507972 0.036707867 0.024482083 -0.03674555 0.03345592 0.041291546 -0.009436119 0.01850288 0.015690435 0.018217657 -0.029335475 -0.02581737 0.041872215 0.013829973 0.04110993 -0.01392553 -0.005716812 -0.010294389 0.008177936 0.049900834 0.04127213 0.0007784143 -0.046572115 0.01925509 -0.04616176 -0.038714945 0.043172035 0.04899316 -0.037319135 0.040536854 -0.045210242 -0.017112542 -0.04721258 -0.02695682 -0.0029399171 -0.011763979 -0.00295192 -0.00920818 0.023998532 -0.037054647 0.023974065 -0.04854257 0.035210524 -0.04680854 -0.017803311 -0.02859713 -0.041819133 -0.013375938 0.00371065 0.009566389 -0.04872451 -0.02589506 -0.02751038 0.00872631 0.04721273 -0.003529977 0.005297672 -0.033568524 -0.0030953176 0.02276497 -0.03668002 -0.04208522 -0.03432969 0.010859489 0.016091693 0.03703687 0.036625896 0.04811945 -0.024707222 0.03659228 0.04360683 0.028275635 0.0405627 0.014020417 -0.039233793 -0.01181661 -0.048125386 0.036982525
than -0.013489962 -0.0223979 0.00037852675 -0.034512542 0.00034125894 -0.028769339 0.014870476 -0.008912705 -0.026730431 0.032846484 -0.03828572 0.0040412545 0.009604264 -0.01790006 0.0065711252 -0.018998468 0.025549378 0.0025190003 0.043502916 0.01895446 0.00041257218 -0.007708214 0.024568249 0.03277031 -0.0107678175 -0.002656795 -0.029000176 0.040623095 0.014515702 -0.048256066 0.014754783 -0.0016725548 0.013290431 -0.03555869 0.04677448 0.03722134 -0.003281068 -0.02999276 -0.030522848 0.04429498 -0.046495426 0.047161665 -0.0071324483 0.045742337 -0.04433911 0.021329787 0.0034071095 0.012739245 -0.0035817511 -0.019108607 0.022552956 -0.033795226 0.03163595 0.014179077 0.021157134 0.03206343 -0.011907995 0.02963883 -0.023170387 -0.04908613 -0.04966862 -0.011816837 -0.00035321712 0.00022497028 0.022509705 -0.040146805 0.044085216 0.016509447 -0.024366045 -0.00638913 0.044683013 -0.006320931 -0.028403116 -0.020510841 -0.043985914 -0.014783848 -0.04994489 -0.03768332 -0.047306098 0.021509383 0.028836217 0.03515606 0.049321 -0.013675533 -0.0029955618 -0.03736963 0.028907072 -0.045697417 -0.031110872 0.013447512 -0.003610313 0.044274066 -0.035475038 -0.019023478 0.003134489 0.02549639 0.0058055744 -0.010424066 -0.048409607 0.0029029027
be -0.035663676 0.044482794 -0.048176277 0.037988666 -0.0089397915 -0.02117299 -0.0129124895 -0.030535638 -0.03320141 -0.02952652 -0.034712553 0.009663008 -0.037839867 -0.016695846 0.03932185 -0.028027356 0.038653444 -0.020059193 -0.012703538 -0.0449062 -0.025569344 -0.039731205 -0.034326993 0.028354358 -0.04294592 -0.015336417 0.027932514 0.0073365197 0.009206712 0.04310601 0.0070354566 0.04155499 0.015917566 0.03415898 0.0002471432 0.04958861 0.047042716 0.0014666095 0.036231067 0.044214074 0.026023928 -0.007953882 0.0032319538 -0.034184612 0.006055534 0.030527774 0.008653749 0.017577384 0.006444823 -0.037426483 -0.038788665 0.013130736 -0.041317306 -0.020951688 0.023382295 -0.022360599 0.010914065 0.034948755 0.029540967 0.030048374 0.025052715 0.010092806 -0.011863232 0.03140119 0.04349531 -0.001760494 -0.046433534 -0.030414546 0.022659551 0.020235006 0.016834844 -0.040363777 -0.019831145 -0.011722516 -0.027067138 -0.022972776 -0.00084445626 -0.03621324 0.030337218 -0.008636393 0.01145643 0.036716606 0.025707636 0.0352978 -0.035056937 0.010304201 -0.040944494 0.009537697 -0.039842464 -0.013663698 -0.024063146 -0.034202732 0.041380372 -0.023710012 -0.0024852864 0.018951643 0.0019926652 0.03802382 0.038372103 -0.00855105
5 -0.034338474 0.0378703 -0.0013193004 0.029998038 0.041131888 0.041803066 -0.032631494 -0.04548433 -0.037547827 0.032973837 -0.0016216151 0.009971976 -0.011390638 -0.01646303 0.037579034 0.0014283061 0.042561505 0.020931248 0.03746059 -0.020994008 0.019599412 0.00080987066 0.04258329 0.044447232 -0.0030543916 -0.048950672 0.0032558814 0.025714766 0.016725365 0.033786062 0.012932848 -0.024804687 0.047506224 0.011595119 -0.0170797 0.04541706 -0.0344427 0.031498816 0.048224036 -0.045402374 0.022128988 -0.010919083 -0.04268229 -0.0070136786 -0.021524657 0.0072181 -0.003693007 -0.016172767 -0.040379 0.04527921 0.044902 -0.021825159 -0.00262798 -0.011276018 0.0038943402 -0.020999325 -0.015766658 0.04518416 -0.04391359 0.026472304 0.024188723 -0.04076717 -0.010278463 -0.03891442 0.046553504 0.016470622 -0.045245707 -0.01416453 -0.044137012 0.017157089 -0.023336435 0.010884404 -0.03390892 0.041901056 -0.02915132 0.010726713 0.013902511 0.039466787 0.044497278 0.014409792 -0.013868082 0.015385676 -0.004785277 -0.012334444 -0.044528972 -0.039081298 -0.0073529854 0.025431838 -0.02953328 -0.03234382 0.03434887 0.026548233 -0.012018215 -8.17664e-05 0.042971734 -0.031153524 0.011199903 0.026998822 0.017412279 0.029872525
days -0.022207057 0.010098565 -0.037816904 0.015718427 -0.03157698 -0.031205643 -0.002565898 -0.0284055 -0.04506227 -0.025122214 0.0054368004 -0.0012769587 -0.04368881 0.046688344 -0.020861149 -0.035683405 0.03015853 -0.010618962 -0.02294743 0.028486859 -0.04183463 -0.027715588 0.017605279 -0.00096197054 0.015478741 -0.010376655 0.018869009 -0.028607702 -0.048657764 0.033002105 -0.041678548 0.010392655 0.008807443 0.017081682 -0.010130249 0.040619876 0.04002824 0.0012569912 0.04740573 0.045597944 -0.039383568 -0.004992664 0.005224239 -0.031108117 0.0053957924 0.0056392774 0.028634321 0.00018862635 0.03281233 0.007683862 -0.012662865 0.044049177 0.042160276 -0.04818919 0.014406983 -0.002903998 -0.018577076 -0.02334608 0.008495044 -6.996468e-05 -0.022128655 -0.03168702 -0.0457574 0.03194585 -0.007009469 -0.00331242 0.017450009 -0.017825387 0.020560611 -0.044808175 0.018968109 0.009162616 -0.033513725 -0.0034312494 -0.028764999 0.04371312 0.026755694 -0.010384299 -0.04349952 0.023298416 0.034712646 0.02022675 0.040789608 0.03970362 0.036342885 0.02686796 -0.020087183 -0.013925195 0.018219415 0.018025327 -0.030034637 0.03666741 -0.047288585 -0.014263462 -0.037344992 -0.03300979 0.040272128 -0.024438763 -0.03236859 -0.01648929
– 0.029703151 0.025464747 -0.016004525 0.033770893 -0.011638977 -0.027139438 0.009838533 -0.0074669495 0.018113937 0.010376453 0.010580443 -0.038318954 0.01913314 -0.028507853 0.04541565 -0.045520496 0.014365021 -0.032490887 -0.022273434 0.012035847 -0.027877426 0.022580478 0.028315913 0.034569707 0.019696448 -0.031224001 0.03699166 0.005674731 -0.0067487583 0.04546347 -0.023642613 0.008770883 -0.020172179 -0.03899628 0.026227724 -0.017694127 0.022394527 0.03143737 0.017513398 0.045049693 -0.014488865 -0.0134008415 -0.022894084 -0.015152514 -0.020336378 -0.047519695 -0.0054727197 0.015701417 -0.02157315 0.035155345 0.023573305 0.048189353 0.026309941 -0.049662806 -0.04878075 -0.031810332 0.04958335 -0.044855643 -0.03365258 0.016819727 -0.003749393 -0.013850689 -0.028636849 -0.00592643 0.0056537986 0.029480208 -0.021029746 0.016685653 -0.023392845 -0.0031319745 -0.03398297 0.017489042 0.041468624 -0.016520489 -0.008620083 0.028305557 -0.032275178 -0.0042283535 -0.032223143 -0.04550762 0.0064683333 -0.036084164 0.044024754 -0.0340873 -0.010382187 0.037335385 0.037017096 -0.03627683 0.031984936 0.04877836 -0.028179253 0.041043017 0.0042286627 0.02332664 0.04931405 0.0037758462 -0.026193023 0.006412506 -0.035439946 0.025105666
are 0.045378435 -0.0056076646 -0.032125138 0.04726957 0.040885117 -0.0015772581 -0.030199552 -0.047669053 0.02536435 0.049947944 -0.044312906 -0.04432405 -0.018840814 0.019539956 0.013809595 0.0006010644 0.0076888576 -0.00132991 -0.040508877 0.0042255633 -0.032562852 0.020048168 -0.035487067 -0.006115865 0.030319545 0.04472499 0.03930041 0.03828952 0.040261496 0.0077401027 0.017135832 0.012908135 0.04499359 -0.021030439 -0.024467671 0.019261409 -0.03372375 0.040153373 -0.033104554 0.023829889 -0.04124532 -0.007395435 0.00431956 0.016586032 0.010118533 -0.045582235 0.02914777 -0.03577168 0.013013136 -0.041297067 -0.035526037 -0.04623716 -0.026859963 -0.006450534 -0.015516352 -0.013997711 0.026437249 0.019972887 -0.031676628 0.03960408 -0.0415094 -0.002467297 0.03186616 -0.030530764 0.024919514 -0.041424952 -0.00065487623 0.022991706 0.049573902 -0.042301524 -0.04155426 0.03797013 0.036536608 -0.038092565 0.027173404 0.04524647 0.01638795 -0.018834997 -0.029130781 0.035074938 0.02540106 -0.0007072799 0.026884142 -0.01779735 -0.04018457 0.016626943 0.02450366 0.009016134 -0.029019296 -0.0012646206 -0.013262428 -0.04222361 -0.002809085 0.036010597 -0.03853017 0.048348855 0.03760979 0.03532697 -0.039972436 -0.026506985
viruses 0.023401592 -0.047594644 0.01987208 -0.039937533 0.010783136 -0.016910125 -0.04292009 -0.035303436 0.026640419 0.020542953 -0.008678652 0.03943089 -0.0049476735 0.034641627 0.0011486784 -0.0048029795 -0.008902729 0.013938893 0.0071688667 0.012469195 0.020285431 0.000998389 0.022274602 -0.03368809 0.02994584 -0.049153924 0.015609551 -0.0392434 0.033148598 0.03131335 0.040967714 0.0028925762 0.0028625615 0.045032863 0.034001637 0.017777357 0.023553643 -0.029308105 0.007927906 0.0025801435 0.028592918 -0.023515021 -0.04872928 0.0432331 -0.0016431808 -0.01551535 -0.015404295 0.023461606 0.025612418 -0.0128101 -0.035214495 0.0060265064 0.013188351 -0.024097169 -0.047319915 0.010222353 -0.005137872 -0.002711378 0.04381076 -0.02855357 -0.014788259 0.03798685 0.029397216 0.046697903 -0.039924514 0.04814026 0.048951093 -0.032930985 -0.01323799 0.027180377 -0.03930825 0.028939877 -0.0040766113 -0.04087181 -0.025665237 0.03110781 -0.049524833 -0.03939705 0.024626914 0.01319715 0.011017837 -0.00050246716 -0.03542284 0.042768765 0.008645676 -0.028604377 0.014339354 0.036540892 0.02437098 0.013062287 0.048699226 -0.022346735 -0.006374847 0.0031073093 -0.0067948923 -0.012626946 0.017279271 -0.036044907 -0.0442986 0.04254896
shorter -0.0043898113 0.049114373 0.006557286 -0.0056639425 0.0023841746 -0.018881215 -0.041173648 0.026198123 0.036636952 -0.014570046 -0.015152298 0.020149734 -0.033699118 -0.03336233 0.01465508 -0.015207268 -0.0008158088 -0.022256566 0.045904193 -0.021371199 0.004290987 0.025830422 0.034635056 0.017242264 -0.045868088 7.0780516e-08 -0.043098237 0.0068746917 0.00317242 0.016628709 0.013497148 -0.03157084 -0.026070906 0.019569103 -0.0024744868 -0.045297395 -0.04425316 0.019523408 0.021595512 0.045233015 -0.026216878 0.0038194656 -0.005149424 -0.04017681 0.024242405 -0.017546035 -0.023699582 0.0495019 -0.043920793 0.013089094 -0.01005628 0.021776404 0.042254243 -0.04511447 0.0035372265 -0.020418072 0.029882956 -0.04807205 -0.0031549223 0.000273861 0.037982736 0.001619555 0.01617286 -0.04704639 0.037677076 -0.046261337 0.016085412 0.021398786 0.033312712 0.026664946 0.015369978 0.03759614 0.00966648 -0.017866801 0.027087975 0.025866035 0.040529434 -0.018446624 0.043028798 0.04157109 0.020196471 0.0114666 -0.04247408 -0.03440385 0.044166867 0.011164378 0.047206488 0.038332175 0.02678955 0.03530881 0.03054614 0.042725515 -0.007065654 -0.047750056 -0.033509053 0.01743329 -0.017247178 0.014337037 0.048856605 -0.018740546
from -0.040914573 -0.018714309 0.004649032 -0.024861837 0.044303868 0.01658174 0.002131652 0.03673036 -0.046370506 -0.025421454 0.027252827 -0.04978324 0.039782908 -0.024243152 0.00081533194 0.015786443 -0.029042197 -0.011151791 -0.023068035 0.020207059 0.026475284 -0.046782445 0.01733419 0.01734848 0.007997107 -0.047232665 -0.043101907 0.016431157 0.030816745 0.016261231 0.026923668 -0.010918308 0.026697349 -0.021667207 0.0020497665 -0.04535718 0.024218414 -0.04669882 0.011191547 -0.021576572 0.0004063733 -0.014199924 -0.043182123 0.04648253 -0.007799756 -0.03906853 -0.04870255 -0.0042705163 -0.009805094 0.015926514 0.046952177 0.02690934 0.012247682 0.030296873 -0.025425268 -0.012883078 0.046779875 -0.043719973 -0.023550058 -0.017025828 -0.04188503 -0.0069232695 0.025986705 0.01753762 -0.042466152 0.03874525 0.017158572 0.036027443 0.018441264 -0.044705786 0.033687297 0.013681103 -0.020459617 0.046936516 0.044964757 -0.043619048 0.011472344 0.020140138 0.040879857 0.04458544 0.035598006 0.024847094 -0.039236665 0.03755833 -0.019519938 -0.01686865 -0.009021424 0.0037442334 0.020711493 0.037261773 -0.01853497 0.0023561493 3.6418438e-05 0.026542578 0.015604686 -0.03537637 -0.043419983 0.01317947 -0.028347421 0.04220188
appearance -0.010266721 0.04003663 -0.03143214 0.005429864 -0.039230753 -0.022727478 0.03667331 -0.036904432 0.027903114 0.021883737 0.03712975 -0.0044214353 -0.026181066 -0.045471694 -0.012996398 -0.031732515 -0.035238396 -0.018095434 -0.0025907531 -0.030550707 -0.025854064 0.03850465 0.007628642 -0.018498767 -0.017961048 -0.039971508 0.041524563 -0.026705433 -0.00074193627 -0.037350655 0.011794437 0.029787648 -0.009743549 0.03969821 -0.016931582 -0.0234545 0.031639766 -0.046906352 0.045463014 0.035240505 0.022028994 0.017390672 -0.018276107 0.04447401 -0.033406377 0.049906854 -0.02723496 0.03411824 -0.004313588 0.034492325 0.03496248 0.031555925 -0.0028403513 0.007979751 0.034729514 0.016553547 0.013112832 0.0223555 -0.04585147 0.018225763 -0.0015393123 0.026770424 -0.028415753 -0.0067534074 -0.026731098 -0.014160883 -0.04089924 0.0089445 0.043620776 0.009439565 -0.03613893 0.03238933 0.01955447 0.03166491 -0.040654518 -0.03940946 -0.038662862 0.039380584 0.0140659325 -0.008025061 -0.03740444 -0.02939148 0.043184508 -0.03364058 -0.0031129718 -0.022767544 -0.015888702 0.044721935 -0.030468678 -0.04195728 0.019904744 -0.0030178912 0.0005091429 9.403378e-05 -0.010808863 0.04524299 -0.0018382668 0.012352444 -0.0447752 0.011832558
symptoms -0.049229432 0.04401901 0.010028362 0.049377706 -0.018484998 -0.008017339 -0.04565809 -0.047720075 -0.029297018 -0.041055154 0.034155298 -0.04609406 0.039217148 0.019210365 0.010899685 0.039342035 -0.04290998 0.01767682 0.0064536445 0.02881733 0.00042508915 0.02268571 -0.017051447 0.028577302 -0.005559601 -0.028932357 -0.043757297 0.032759834 0.03571925 -0.023726558 0.0055525675 -0.032228194 0.04815853 0.017302882 0.014740791 -0.0057978258 0.008402966 0.024525788 0.0451929 0.033496607 -0.031839684 -0.0009441748 -0.024344563 -0.021595014 0.01013751 0.016946066 -0.009998906 0.041030798 0.005990315 0.028988492 -0.039630007 -0.016465485 0.006144963 0.03172714 -0.044008244 -0.03106984 -0.04344082 -0.03433615 0.041775074 -0.046444833 -0.010378242 -0.008075856 -0.029774655 0.011882592 -0.005126141 -0.046720635 0.005256105 -0.031787455 -0.020772709 0.030219521 0.016786326 0.0011767261 -0.012865759 -0.011643279 0.03925996 -0.0440588 0.010918878 0.00998237 -0.012840271 0.04547045 -0.010054886 -0.039812505 0.047918055 0.033651557 0.046947125 0.00022016838 0.04724485 -0.033361435 0.0004457347 -0.039979804 -0.03372556 -0.04953636 0.036053512 0.027628768 0.04014634 -0.027201785 0.028353754 0.01681577 0.027888823 0.0063403025
while -0.018089093 -0.012022041 0.028142381 -0.03894607 -0.03349618 -0.0023529045 0.01236074 0.031443622 0.027989876 -0.017419051 -0.021533025 -0.023161018 0.0053545237 0.03811239 0.01686031 0.037278485 -0.03868399 -0.011484526 0.046566714 -0.031632982 -0.013583053 -0.037408542 -0.005673051 0.004516281 0.029218245 0.002663277 0.018697236 -0.03160485 0.005368162 -0.0039967187 0.016903903 0.014947083 -0.042308997 0.037139025 0.027435947 0.0041386597 -0.029651238 -0.032975554 0.012472022 0.022862088 -0.019456064 -0.026659345 -0.027578473 -0.036666047 0.032888163 0.008419313 -0.030640675 0.031201113 -0.03611044 -0.0475199 -0.044335615 -0.009929739 0.042814042 -0.008272983 0.0015542284 0.009883035 -0.048536625 -0.041045725 0.0025630966 0.040805366 -0.028361654 0.034581427 0.012340486 0.011397816 -0.00078170374 0.04541525 -0.013159871 -0.016581394 -0.00063543394 -0.03431307 0.030138444 -0.024625802 0.031725977 0.033903327 0.040155534 -0.04832964 -0.029299462 0.0142930485 0.01313955 0.039081108 -0.03335984 0.016147781 -0.0013633966 -0.004276 0.01646993 -0.04514555 -0.0049717054 0.007935442 -0.031607676 0.044647004 0.001331795 -0.023552287 0.025373247 0.012302615 0.03459965 -0.007996403 0.007672023 0.03519472 -0.036065005 0.034715448
3 -0.025849808 -0.019613529 0.040869225 0.023011576 -0.019835068 -0.001949776 -0.039011072 -0.04569179 0.047389124 -0.028807843 0.0035237186 -0.02681756 -0.016481102 -0.02758143 0.027583528 0.03428146 0.0013562553 -0.0066162944 0.042518426 -0.015125036 -0.024722636 -0.026433205 -0.010834314 -0.03290631 0.01196494 -0.013829231 -7.9046935e-05 -0.03226248 0.0037704222 0.016334664 -0.03782066 -0.0471133 0.014512394 0.0008697733 0.0024164096 0.03837261 0.040717606 0.042565618 0.045970056 0.028354358 -0.028075231 -0.039212335 0.003188014 0.031123426 -0.01430162 0.03920466 0.0075949207 -0.034229267 0.039492156 -0.035110928 0.013214972 0.012013413 -0.0058768764 0.023418274 -0.04814136 0.026151966 -0.0150608905 0.017844688 0.033071984 0.016806487 0.024892155 -0.0043496117 0.009260558 -0.026147975 0.013797548 -0.029198242 -0.04074224 0.04597931 -0.021055305 -0.0408203 0.016512897 -0.024775553 -0.012157012 0.0154016055 -0.016754378 0.03138579 -0.030829012 0.0048272125 0.008853782 -0.010941364 0.015670788 -0.03605461 -0.015954398 -0.00054160506 0.011125542 0.04016768 -0.03494929 0.014875162 0.011890627 -0.025216317 0.01337469 0.04445905 0.012252234 -0.035692144 -0.0036884174 0.027564969 0.033642802 0.0391153 -0.035760604 0.0026674755
this -0.035404444 0.011271905 0.019648734 0.022741292 0.010832392 0.030240629 -0.03152658 -0.0283152 -0.048803866 -0.03724537 -0.012160778 0.034152698 0.030388486 0.024187181 0.037756953 -0.03168726 0.008226596 -0.03987837 -0.0097746365 -0.04702269 0.026667122 0.045171466 -0.013071895 0.039809357 0.046019915 0.043027792 -0.023399234 0.005724322 -0.02112987 0.04450121 -0.012634516 -0.00917257 0.04633869 0.0038810149 -0.045954634 0.019665513 0.009764217 -0.036790885 -0.013430905 0.016298022 0.012461018 -0.014556371 -0.004341889 -0.021714032 0.020176541 -0.020887805 0.04112042 0.027861204 -0.042249348 0.03278954 -0.035013713 -0.03787781 -0.021179736 -0.048352074 0.01341721 0.02314737 0.031229172 0.015269492 0.014688823 0.029908035 -0.023724735 -0.00067418814 0.04475769 -0.03141155 -0.020508826 -0.036664378 0.04011314 0.011913873 -0.012613796 -0.013026275 0.04953475 -0.048587155 -0.0065778866 0.028731111 0.049352538 0.012918714 -0.0055451766 -0.02692522 -0.037222635 -0.029681265 -0.011235107 -0.039723527 -0.033899654 0.017994765 0.017138671 0.018006515 0.035680618 -0.0038096309 0.039882172 -0.014850248 0.045503248 0.040110935 0.04989053 0.039103057 -0.02317145 0.043252062 0.028128233 -0.016982567 0.006465398 0.016116392
that -0.039750457 -0.009940863 -0.040849816 -0.04945624 -0.012727428 -0.017645657 0.02938335 -0.033666074 0.02705643 0.031591523 0.01994269 -0.046533823 -0.04352423 0.0019939318 0.016769517 0.03381831 -0.0018090382 0.010066699 -0.026282132 -0.024389816 0.0036882162 0.049954284 -0.012745548 0.014644954 -0.030332327 0.032314327 0.01757009 0.038991462 0.028062727 0.011112653 0.025790084 0.04913843 0.026742864 0.029751468 0.039253462 -0.0030538552 -0.030427003 0.04382277 0.034315374 0.02607799 0.018443692 -0.004549764 -0.010577392 -0.0246405 -0.013647877 -0.020763278 0.0039062276 0.028597202 0.031072248 -0.004791282 0.043567803 -0.023792697 -0.027331507 0.0066658854 0.017262887 -0.03559971 -0.04750475 -0.024293661 -0.039641917 -0.045585632 0.015505161 -0.025505066 0.047200326 -0.001096677 0.041396353 -0.04882746 0.024904277 -0.030375874 0.0166726 0.04448059 0.045555446 0.022930864 0.04458351 0.031607237 -0.0013916381 0.00825081 0.015515018 -0.03295027 0.013205279 0.009051025 0.0030589476 -0.0029468536 0.03604773 0.02928437 -0.021940732 -0.03576554 -0.04997362 0.04990835 -0.025815928 -0.037356723 -0.035934974 -0.019956147 -0.01398959 0.031577814 -0.048291482 -0.047486424 0.015472736 -0.014122378 0.03349996 -0.023883952
can 0.006711401 0.021321598 0.010717116 -0.04688077 0.0017720573 0.02331983 0.014941577 -0.002253782 -0.007914804 -0.007605672 0.0203722 0.026618268 -0.021200597 -0.006033253 -0.009030379 -0.0096358545 -0.03309937 0.046495702 -0.011275709 -0.048541047 0.028410327 0.032091293 -0.030020082 0.0116334185 0.008322954 -0.040170956 0.0012423396 0.042585436 0.034583937 -0.034290694 -0.021783495 -0.009103693 -0.031813778 0.04352207 0.040769923 -0.0057132356 -0.024799574 -0.028327549 0.0040682666 -0.030020833 0.013799872 -0.0465904 -0.019993616 0.0075727105 -0.04711057 -0.046165433 -0.043819454 -0.0027019382 0.008397687 0.034625474 -0.036690295 -0.029079437 0.009219121 0.027764227 0.044800628 0.025547925 -0.011940122 -0.009231605 -0.041048847 -0.012735318 0.03808712 0.031763483 -0.02469157 -0.011080921 -0.0480631 0.033313338 -0.025183631 0.04757123 -0.030973328 0.036611285 -0.021829998 -0.034954943 -0.039291084 0.021097388 0.008106969 -0.014982283 0.03932414 0.029069733 -0.026981784 0.036738228 -0.04377228 0.023152519 -0.01745566 -0.0010542758 0.017765772 -0.03489101 0.031634796 -0.005576469 0.0047101155 0.03233332 0.01804899 0.0027398244 0.020831201 0.008802593 -0.0406649 -0.011311017 0.0023938194 -0.014199458 0.04763614 0.04960152
in 0.043235574 -0.048891522 -0.044070173 -0.02222277 -0.029528642 0.018149022 -0.0046724193 0.034527432 -0.043384362 0.0046788454 0.04890457 -0.004523538 -0.030315757 -0.027269697 -0.042190958 -0.00068949535 -0.024381543 -0.024293065 0.021664586 0.02418634 -0.03559854 0.035526123 -0.037007082 0.01920886 -0.037518013 -0.008904971 -0.032740403 0.032283936 -0.002712857 -0.015583277 0.035449553 -0.024335837 -0.0029183254 0.004048966 -0.01706282 0.009414174 0.039056126 0.049031924 0.010948479 -0.040955067 -0.025025547 0.02623893 0.018783938 0.035829272 0.0045611747 -0.039481223 0.010590851 -0.038230956 -0.042895045 0.01635759 0.045825433 0.029227022 -0.04478245 0.038212333 0.0025706775 0.040795576 -0.0011035427 -0.04505371 0.008593105 -0.008209147 0.03665712 0.0056139715 -0.022064805 -0.009890892 0.031509046 0.047057543 -0.021876073 0.010880351 0.018446531 -0.011102617 0.0137919225 0.026791718 -0.039458774 -0.01973858 -0.031998135 0.04485554 0.006981574 -0.003345348 -0.027768387 0.021601569 0.025857355 -0.00773263 0.0038755909 -0.031843446 0.004831206 -0.0028259046 0.048704114 -0.046858847 -0.03916185 -0.031057645 0.028277408 0.0083995685 -0.048892725 0.005094301 -0.038991548 0.022591617 0.011292111 0.04115585 0.021253001 0.012348998
major 0.019291129 -0.039603747 0.0037116297 0.022480432 -0.009144772 -0.0031424984 0.049422514 -0.015040934 0.03162289 -0.002647996 -0.033734728 0.025744114 -0.014782488 -0.04798895 0.009927236 0.03121284 -0.016489755 -0.0052660704 0.0030897744 0.040553752 0.0064901337 -0.017759275 0.034092214 0.015714947 -0.04241791 -0.029198159 0.032485615 0.033614162 0.03967813 0.0054788813 0.030276429 0.038129542 0.025080774 -0.0024646297 -0.010690011 0.002479829 -0.03105606 0.04989096 0.03878424 -0.037898064 -0.0226133 -0.023041619 -0.032257438 0.007960357 -0.029538453 0.020390939 -0.04707091 -0.030704081 0.0060587153 -0.023348784 0.008315016 0.0008033514 -0.003999997 -0.041957557 0.0070540532 -0.015052509 -0.035410475 0.019804027 -0.022887183 0.021092165 0.039855603 0.024684992 -0.040100407 -0.009357117 0.045884673 0.02709185 -0.042073417 0.030480776 0.013524834 -0.00762596 0.0066040754 -0.014804877 0.0050552487 0.049088385 0.012720693 -0.043469537 0.005272042 -0.030415893 0.03194798 -0.043968584 -0.02472855 0.011441767 -0.021063555 -0.030934764 -0.0095819235 0.0026713833 0.018655252 0.0063591376 0.024063196 0.0005650744 0.017528955 0.0013473518 0.048295047 -0.011946987 -0.021975387 -0.035919704 0.013709735 0.0035165064 0.043409202 0.03551391
driver 0.032719743 0.044999603 0.0020495541 0.011924051 -0.04832841 -0.022040475 0.023310099 0.010878373 0.011855543 0.003686808 -0.030946255 0.032084513 -0.009866022 0.024179492 0.014428858 -0.030490458 0.026959691 0.04656991 -0.044954326 -0.027566398 0.01135125 0.016815487 -0.001760982 0.03768916 0.027882528 -0.025575018 0.013901021 -0.044738676 0.029624823 0.020214166 0.020001125 -0.04502031 0.03430445 -0.010470558 -0.0028898343 0.0012069345 0.047303665 -0.0022461787 0.024716828 -0.015513144 0.016473603 -0.015850794 -0.04677373 0.008153774 0.03777684 0.042553734 -0.0049583092 -0.049649514 0.03434736 -0.036538135 -0.0061079487 0.0306787 0.010557067 0.026630525 0.043133747 -0.026580965 0.046180908 -0.025453424 -0.023609519 0.0014704578 -0.03397318 0.007100869 -0.04530232 0.04654156 0.04750457 0.035152983 0.028872538 -0.010542691 -0.016474687 -0.024274934 0.0041653886 0.017250981 0.046733428 0.022588503 -0.01221361 0.044531528 -0.009408675 -9.156764e-06 -0.038206637 -0.02189113 0.005361844 0.017246548 0.022885982 -0.02151444 -0.049022164 0.026165497 0.038610544 0.019030157 -0.030273974 0.023076508 -0.025269365 -0.026865339 -0.012769651 0.006305754 -0.026339328 -0.042419206 -0.042187583 -0.034857858 -0.0008554086 0.044736538
number 0.0109140165 0.036980856 0.0075266473 -0.035240006 0.008610763 -0.0050409213 -0.045251846 -0.043374863 -0.004339196 -0.04774158 0.020924639 0.02567811 -0.023103738 0.0005468242 -0.0069679245 -0.004488636 -0.0096609965 -0.046963166 0.0259532 0.0004832968 -0.030292809 0.04599965 -0.02426188 0.04099909 -0.0016929507 -0.0014397278 -0.006539572 0.026966695 0.047955725 0.0038527474 0.021073822 -0.0029992089 0.028050091 0.01297811 -0.02668239 -0.022484291 0.028791618 -0.02504437 -0.019200636 0.015575718 -0.008351397 -0.017818201 -0.033082284 0.009447135 0.04690088 -0.01987251 0.026220035 -0.0059648864 -0.047682967 0.0069153905 0.015026141 -0.03341522 0.047279883 0.027625095 0.03186408 0.014664065 0.024670873 0.03521644 -0.019405175 -0.014232229 -0.028517306 -0.04437988 -0.019717647 -0.00030810758 -0.02249285 -0.02444539 -0.002300322 -0.0007287748 0.025102902 0.044888917 0.026621822 -0.028025424 0.017004538 0.007907309 0.011289071 0.0023822188 0.010114502 -0.047153663 0.04967821 -0.011519469 0.044294048 -0.039583683 0.03138938 0.0025436059 -0.010045875 -0.00830885 -0.013892293 0.046020243 0.023445573 0.04064182 0.014384355 -0.009780429 -0.038347922 0.019698273 0.001953613 0.004224181 0.03166804 0.043098044 0.035519447 -0.0008361712
2 -0.008284379 0.029859554 0.02521545 0.024071325 -0.04100267 -0.035845447 -0.0036790147 0.036099616 0.031740908 -0.0006574765 -0.03556571 -0.02372439 -0.00897678 0.016253386 -0.013004921 0.028494183 -0.028577888 0.042399313 -0.023167467 -0.01875906 -0.04495708 0.049007248 0.018206324 0.007942844 -0.008886673 0.009974312 0.01847997 0.035759892 -0.047443498 0.028357927 -0.022150576 -0.029775608 -0.02311256 0.015066449 -0.035010196 -0.024667371 -0.027927017 0.017537165 -0.013422109 -0.04905466 -0.029879808 0.046846177 -0.008994855 0.010530949 0.009975243 -0.037443113 0.012596678 0.030484509 -0.01670865 -0.009628762 0.04563837 -0.02466098 0.012077402 0.048528854 -0.026838852 -0.002765298 0.02431598 0.038888607 -0.016920377 0.02428912 -0.03257457 -0.025684739 -0.04417303 0.03043646 -0.049563505 -0.04932593 0.01006465 -0.043370035 -0.0127133615 0.009750258 -0.031570435 -0.044921245 -0.04590371 0.0072810054 0.044638705 -0.046581626 0.013683189 0.026639674 0.025962714 0.026159 0.046518 -0.0011380538 0.0050074235 -0.03469 -0.014387764 0.037075285 0.042652693 0.014393281 0.012072336 -0.010648202 -0.036701024 0.022267114 -0.03538879 -0.0021592155 -0.04675169 -0.019830858 -0.044380106 -0.003803812 0.006464623 0.0065359697
speed 0.012869645 0.044836175 -0.019354725 -0.04065012 0.005334448 0.006669808 -0.0260095 -0.0004396923 0.027762484 0.03812078 0.037033547 0.0041275993 0.015089426 0.010612238 0.010639168 0.037948024 0.036753837 -0.0058011897 0.033259597 0.014232431 0.0005263202 0.041803073 0.033751417 -0.020031322 -0.035643995 0.017558943 -0.027933145 -0.014350988 0.016294312 -0.014667809 -0.047205914 0.038356114 0.044241715 0.009213496 0.038688805 -0.012919806 -0.020137263 9.8608434e-05 0.025144372 -0.047494173 -0.025603164 -0.0010613687 -0.0042957775 -0.024969244 0.0064711794 -0.030772973 -0.011605062 -0.03732544 0.00016992167 0.018724013 -0.0017516129 -0.03226377 -0.034586083 -0.029486073 -0.0044930466 0.010285653 0.016509105 -0.024100995 0.021034528 -0.010253381 0.03518111 0.033977415 0.026182864 -0.032177947 0.044894483 -0.03420787 -0.03170848 0.0014394745 0.014906261 -0.01575967 -0.048923757 -0.043578245 0.01225505 0.048548106 0.023148213 -0.042906918 -0.045833565 0.039793078 0.014765803 0.012477972 -0.01911725 0.022122983 -0.028268099 0.012097705 0.03159417 0.030584905 0.013963368 -0.04936812 -0.02306502 0.048024904 0.031834844 -0.03800466 -0.020374179 0.039053824 0.012217008 0.027783122 0.013438176 0.026293468 -0.049962904 -0.049574565
an 0.043298233 -0.022181237 -0.048233688 0.004993163 0.048442673 0.03011452 -0.048236717 -0.044766333 -0.048763372 -0.016903043 -0.0022424832 0.017799247 -0.014440846 -0.025094701 0.03907125 0.027978051 -0.01653453 -0.032876275 -0.008489907 -0.026237344 0.004889272 0.0009286292 -0.033169664 -0.02087847 0.010418199 -0.04891136 0.034923147 0.009618819 -0.030030226 0.02009252 0.046538953 -0.022645164 -0.0076317564 0.046713684 -0.039729547 0.0025936477 -0.017716635 -0.010350477 0.013388943 -0.045098137 -0.02743472 0.019988168 -0.041460454 -0.0061411373 0.016585123 -0.04059006 0.036524903 -0.020011568 -0.027770078 0.016284551 0.007435344 -0.012871433 -0.04516095 -0.027975524 0.009690333 0.002493836 -0.011385988 0.022648636 -0.010443818 0.047789883 -0.0324582 0.015884388 0.036064412 -0.029703213 0.046491813 0.04941981 -0.04570899 -0.04203825 0.02734914 -0.030000592 0.03838407 -0.017462134 -0.0076905265 0.025338415 0.04165626 -0.0076219067 -0.011671912 -0.00033349916 -0.0019151345 -0.0063573606 0.03742976 0.02636901 -0.03386271 0.021284942 -0.027842367 -0.006018162 0.041335154 -0.03734697 -0.019390035 0.04891863 -0.01090201 -0.011114977 -8.08835e-05 0.04665191 -0.048283007 0.0018603578 -0.047135174 -0.019468402 0.020377148 -0.023471404
important -0.020477856 -0.034293473 -0.021223748 -0.045762133 0.027728546 0.036547307 -0.013599288 0.00040531158 0.011001907 0.00022502989 0.023729358 0.014796402 -0.018084992 -0.046527635 0.03137448 0.012552787 -0.03624909 0.027859475 -0.0017256625 -0.03699974 0.042426113 0.027803969 0.03898773 -0.04983188 -0.03988924 0.02373365 -0.01722797 -0.039372027 -0.039001714 -0.046648182 -0.015790403 -0.006796062 -0.02064246 -0.035783827 0.016921196 -0.015882947 0.0023867115 -0.03331063 -0.030382289 0.020146038 0.041011605 0.04868387 0.01182561 0.041964423 0.029074635 -0.02998637 -0.04341346 0.0034853444 0.02982657 0.032870818 -0.047709312 -0.0269184 0.028670434 0.008603036 0.042406026 0.017869715 -0.028207852 0.0058907047 0.043650556 -0.019674718 0.01979765 0.045651857 -0.032392144 -0.018865824 0.028075662 -0.026689136 0.015235875 -0.02828654 -0.03807385 0.029791642 0.017056707 0.028576043 0.034167055 0.0036591776 0.04727212 0.041883256 -0.018014409 -0.04077951 0.028088223 -0.045792937 0.017156128 -0.039247703 -0.00044617802 -0.03912847 -0.046440184 -0.048866022 0.041249324 -0.021346712 0.012321781 -0.03375943 -0.015387811 0.032264385 -0.042274345 0.0369715 -0.007940281 -0.032957688 0.004971899 0.043765817 -0.00046684593 0.015718643
point -0.00924506 0.009639539 -0.0445729 -0.011661649 -0.047679007 0.045808498 0.0257064 -0.012320887 -0.049407043 -0.007360734 -0.00083850697 0.0034206025 -0.0101775415 -0.036206685 0.013137985 -0.021272434 0.046248008 0.015055548 -0.036782622 0.0042071342 -0.04858104 -0.006362427 -0.0022114292 -0.013144065 -0.0006589405 0.025986817 -0.015626691 -0.014656089 -0.0032845028 -0.028400624 0.017512415 -0.017399598 0.013456155 -0.02588426 0.023899887 0.03810184 -0.01537751 -0.029763425 0.00018849224 0.002082646 -0.04788046 0.02522472 0.005988311 -5.903095e-05 -0.0025433674 -0.04880891 -0.012936793 -0.00813403 0.012780342 -0.017569173 -0.037230372 0.0028756484 -0.031882275 -0.00590495 0.019983064 -0.038852572 0.030157257 -0.021744061 0.0075877793 -0.013690732 -0.019213391 0.040415887 -0.0093555935 0.019591186 -0.041127015 -0.021671617 -0.030577898 0.010381281 -0.045958307 0.044774894 -0.023361314 0.012742031 -0.002604127 0.041613188 -0.044056416 -0.008686293 0.022042047 -0.04531641 0.0045772903 0.0012644045 0.024257924 0.018120829 -0.044567656 -0.013178337 0.02959479 -0.015869487 -0.01893325 -0.045004606 -0.03419918 0.021533716 0.049140025 0.04762396 0.026424412 0.0054487213 0.0028602257 0.02242184 -0.021806931 0.0050758235 -0.00264249 -0.031034255
difference 0.03834677 0.010596454 0.019582782 0.019255016 -0.0001877658 0.015555691 0.0039865375 0.0032806396 0.0138371475 0.025238227 0.024807084 -0.0044086576 0.01007713 0.03720596 -0.023485363 0.023572538 -0.026301254 -0.0075848587 -0.028371323 -0.0103213675 0.031284418 0.033969644 0.033892337 -0.04350524 -0.021383977 0.026494134 -0.0019033924 0.043346766 -0.010437727 -0.037743557 0.0011751056 -0.035415314 -0.03756503 -0.006529331 0.034412157 -0.0012376904 0.023765828 0.039975274 -0.02775587 0.018370558 -0.0034394152 -0.0072677955 0.020490978 -0.02037542 -0.04115174 -0.044686746 0.024650503 -0.017362095 0.026753996 0.008970808 -0.045755148 -0.044129897 -0.0074349158 -0.04298233 -0.008281708 0.008668266 -0.048880648 0.0048981905 0.027341668 -0.048826434 0.015490774 0.0339618 -0.04937897 -0.04877863 0.006162584 -0.045202818 -0.006496154 -0.03265331 -0.034597088 -0.016215183 -0.0054574013 0.020477537 0.044418562 -0.04612403 -0.04012052 0.021375779 -0.032715727 -0.03923714 0.040639985 -0.023845196 0.03698566 -0.037212003 -0.031089604 -0.0058136582 0.02839024 0.048180785 -0.04677501 -0.036805343 -0.014166843 -0.032259464 0.011191465 -0.02559786 -0.0099515915 -0.031910766 -0.046611346 0.041622173 -0.0328946 -0.049469985 0.0053271875 0.03353456
two 0.027140807 0.030687202 0.047843326 -0.028903915 -0.037802707 -0.0021282323 -0.027709259 0.008324124 -0.040201712 -0.025107432 0.010197081 0.04058827 -0.018235076 -0.044369735 -0.0130781755 -0.019956673 -0.02692355 0.049951505 -0.012821756 0.013076138 0.0227913 -0.031999826 -0.0050420985 -0.0250018 0.014136005 -0.042542685 -0.006066311 0.013485435 -0.0010247603 -0.038200222 -0.045832515 0.00727167 0.04921386 0.033314314 0.006263554 0.045459393 0.00420456 0.029168319 -0.049218655 0.015919138 -0.03169532 -0.043877687 -0.013552606 -0.04211972 -0.010872196 -0.045145344 0.03289822 -0.0020417348 -0.03621026 0.016079795 -0.030503882 -0.032268606 0.013103809 0.025240038 -0.04858601 0.008139968 -0.03357096 -0.021516085 -0.036173604 -0.045156002 -0.038301587 0.04566667 -0.010572396 0.027131151 -0.03843824 0.04730722 0.03998336 -0.025037264 0.010051202 -0.019764423 -0.011334337 0.044198934 0.012899745 -0.0067614317 -0.027394628 0.04714941 0.0377939 0.021278504 -0.009709466 0.018905405 0.043152418 -0.026900316 0.018081333 0.04826789 -0.016376078 0.04688665 -0.0020608082 -0.008908331 -0.048326194 -0.049044337 0.0012816191 0.0021731965 -0.003997147 0.034598123 0.038333606 0.017891634 -0.030003011 0.0070876256 -0.0018485412 0.00074262545
has 0.015652012 -0.042885363 0.014384497 -0.045517124 -0.01450206 -0.018710505 -0.047527444 -0.025184333 -0.025498582 0.025825981 -0.042398382 -0.019705951 0.0128042735 0.04776894 -0.03848549 0.014547262 0.0055737495 0.049905207 0.013115216 -0.02960763 0.011011314 -0.040974032 0.02882291 0.005840134 0.006536126 -0.04115678 -0.04084506 0.012877431 0.020149458 0.027354572 0.02060901 -0.01097288 -0.019466067 0.034046624 -0.023508001 -0.018209018 -0.028913701 -0.04162673 0.016425971 0.040841233 0.047162283 0.021095429 -0.026620721 -0.036747776 0.008146428 -0.041269563 -0.017341934 0.029163662 0.04083934 -0.03974148 0.012099326 -0.00023403019 -0.042271126 -0.041999377 0.04530556 0.03778476 -0.0493806 -0.03207358 0.044968847 0.009518694 0.017854739 -0.046170294 0.045818854 -0.04161196 0.023947868 -0.031218266 0.0017450452 0.022908602 0.04687584 -0.027669383 -0.02225833 -0.04012643 -0.011817694 -0.036871005 0.04031452 0.013803367 0.015832458 -0.0071961507 0.026581492 -0.006692849 0.009711396 0.03317431 0.0033519492 -0.04410702 -0.01135074 -0.047393467 -0.0069281235 -0.03638495 0.035281036 0.042253803 0.04628999 0.017413463 0.025771808 -0.04642285 -0.02982371 -0.041968573 -0.024260653 -0.03301369 0.025529806 -0.049744893
median 0.003749121 0.03826842 -0.017154824 -0.046581745 -0.03184904 0.036300827 -0.02297299 -0.040248513 0.036290016 -0.04877938 0.015842382 0.04864974 0.017209116 -0.02440611 -0.028991794 -0.0102419965 -0.020005047 0.03745499 0.015782658 0.001705002 0.020044219 -0.040609777 0.041774858 0.00037480518 0.023738336 -0.016746879 -0.016251065 0.03210267 0.03781117 -0.030179633 -0.04202974 -0.030917455 0.02108914 0.011747144 -0.044360876 0.009144962 -0.04010103 -0.01639533 -0.044332005 0.045816433 0.00355215 0.047853116 -0.034235194 -0.018182348 -0.034873985 -0.038149964 0.048070874 0.017286886 0.032521416 0.040108327 -0.009685468 -0.024649203 0.009376682 0.0028896555 0.029203128 0.026811842 -0.04457232 0.046952594 -0.035377394 -0.04538553 -0.0013738051 0.025079701 -0.038804997 -0.04923836 -0.013973534 0.006529726 -0.039812803 -0.017061986 0.00069023296 -0.020205546 0.0144592635 -0.009082876 0.014627967 -0.022753967 -0.04914384 0.043945763 -0.021597683 -0.012636911 0.043658648 0.046104793 0.034779157 0.021638941 -0.00021521002 0.00449444 0.046553556 0.015080515 0.008123707 -0.010175895 -0.036506366 -0.002712179 0.03724433 -0.014300037 0.007721223 -0.00981003 0.046831217 0.008346595 0.026974786 -0.015230559 -0.04114907 -0.043218948
incubation 0.00072499365 0.014662299 -0.020539595 0.006569851 0.016989555 0.023939285 -0.02632079 -0.014084242 -0.020093692 0.043264654 -0.009866215 0.037719537 -0.0086966045 0.03842498 -0.0052711144 0.03313173 -0.03418962 -0.03545779 -0.0041186325 0.04514091 0.03620476 -0.019148886 -0.015730929 -0.037718557 -0.015645266 -0.022929132 -0.0017293319 0.013912473 0.03779466 0.047320817 -0.039251138 0.03423432 0.03556228 0.0012962446 -0.0063792467 0.03960203 -0.026232148 -0.042464364 0.023527969 -0.04608506 -0.020353401 -0.0130680315 0.037660148 -0.040967584 -0.03580123 0.007289637 -0.020869052 -0.023679186 -0.005000986 0.022563886 -0.04748651 0.038421962 0.023355614 -0.03893019 -0.040309228 -0.0038438328 -0.00031212717 0.00976783 -0.02920934 -0.033513963 0.04635242 0.026966404 -0.00923742 -0.0034862757 0.027052883 0.021372203 0.020111788 0.03278971 -0.012472153 0.019324038 0.009169757 0.0067524314 0.03119972 -0.00634972 -0.028979123 -0.03331071 0.01882739 -0.006285548 0.012442686 0.03334601 0.006657768 -0.04603192 0.0010208376 -0.02791406 -0.034337364 -0.028921856 0.0076343305 -0.029925609 -0.016192019 -0.016776226 -0.03885014 0.031000365 -0.039496828 -0.02462777 -0.03385949 0.034036074 0.010056723 0.0089741945 0.029173743 -0.043295123
period -0.021879805 0.010665454 0.03186134 -0.006023895 -0.002855517 -0.010191143 0.03716958 -0.024020458 0.004116427 -0.01841706 -0.02478286 0.03151015 -0.026908481 -0.04883492 0.018966142 0.003757488 0.037914205 -0.042542566 0.030421559 0.026912782 0.024871144 -0.02800504 0.008089531 0.028238725 0.03170966 -0.008113883 -0.0048521385 -0.025918806 0.022940647 0.001718618 0.03281789 0.04545233 -0.009347666 0.011160277 -0.034220874 0.002212476 0.029868927 0.002802074 0.041749302 0.042127375 0.011607431 -0.0040080063 0.03333353 0.0191576 0.0044213906 0.0058029667 0.01520833 -0.028068185 0.041449834 0.03935105 0.04280925 -0.01817603 -0.0028848425 -0.04384148 0.024205271 -0.02814858 -0.020218898 -0.03129381 0.008029889 -0.03674861 0.030795489 0.04349002 0.028208826 0.038846526 -0.007042922 0.012815919 -0.024475086 -0.013631381 -0.012716483 -0.044072773 -0.005870141 -0.046342947 0.02458768 0.013335515 -0.044780027 -0.028355027 -0.043486953 -0.002596058 -0.021095311 -0.018023264 0.006480433 0.04636209 -0.0017040968 0.0015455 -0.01567763 -0.043260694 -0.03120382 0.045634393 -0.049017023 0.031288993 0.026750032 -0.041831326 -0.03426974 0.028844986 0.017274383 -0.04526464 -0.03829504 0.04394329 -0.001635395 -0.03637141
infection 0.033870187 0.010232389 0.00048233196 0.045143608 -0.0016233809 -0.00890094 -0.02574326 -0.0069158673 -0.04699708 0.012280427 0.005692221 0.049728382 0.017440308 0.048068788 0.003139019 0.045824934 -0.038743176 0.008579433 0.024571303 -0.02239368 -0.046089232 0.022690449 -0.006753374 0.04881232 0.015946437 0.04037858 0.028076697 0.049597416 -0.009297121 -0.0045137033 -0.016137779 0.033466134 0.032870818 0.029860143 -0.03079766 -0.016670443 0.028007414 0.019668866 0.021691252 -0.025188554 0.048437927 0.010570634 0.00093407556 0.019772414 -0.024684144 -0.04086665 -0.038410485 0.028345358 -0.043126144 -0.04354879 0.023387562 -0.044244375 -0.031492017 -0.021439064 -0.028071035 0.032434467 0.0059105046 0.047347914 0.034642708 0.013682809 -0.024520338 -0.032586038 -0.03545755 -0.031700112 -0.00975268 -0.04401634 0.006702088 0.030296985 -0.030016256 -0.02512951 -0.020865643 -0.01322522 -0.02076807 -0.027602507 0.044305313 -0.022288514 -0.03419012 -0.0056968555 -0.029885208 -0.037709475 -0.023642255 -0.020085622 0.046611022 -0.047229588 0.026516724 -0.021604646 0.026180897 0.028072666 -0.027512837 0.018499862 0.0127960555 0.019015696 -0.022077298 0.046468627 0.023837555 0.0235256 0.037465815 0.024353314 -0.009417914 -0.019289447
successive -0.015817117 -0.040684246 0.043330062 -0.00026930496 -0.041563474 -0.04723704 -0.027957667 -0.041473877 0.037852827 -0.031517327 -0.029979719 0.049518887 0.01286507 -0.007696282 -0.044093885 -0.0053504705 -0.0075480826 0.02100629 -0.039866578 -0.020851089 0.026372861 0.039493036 0.027855504 -0.03017565 0.01427057 0.04252671 -0.021279037 -0.028067827 -0.009752702 -0.02495029 -0.004528545 -0.021415293 -0.04593724 0.041971076 -0.00254599 0.04236764 0.03906547 0.042592477 0.047458936 0.008921005 -0.023577606 0.0070577376 -0.03867339 -0.019419802 -0.031721793 0.0047055967 -0.014369011 -0.0015347004 0.036863472 0.009486139 0.010363948 -0.04447503 -0.020764304 0.003674984 -0.002030708 0.03491387 0.007875551 -0.024297595 -0.0071173795 0.045672167 -0.017335057 0.010667838 -0.02600999 0.014150444 0.041236904 0.043137718 0.013343539 -0.030741513 0.0035357103 0.018029604 -0.032814637 0.0006842837 -0.001336921 0.022543456 -0.034863792 -0.014518868 0.049648527 0.00042895228 -0.024412394 -0.04945886 0.0026255362 -0.023360098 -0.043003786 -0.017223109 -0.04931028 0.019738529 -0.03952519 -0.049689602 0.0005008206 0.014555942 0.008234106 0.015906785 -0.0036039576 -0.041840114 -0.003715407 0.025017712 -0.034603775 0.030105304 -0.006987892 -0.020281935
cases -0.035204995 0.039758418 -0.019361032 -0.048767306 -0.017828237 0.043605875 0.041457225 0.045170594 -0.026529957 0.031397585 -0.04107616 0.048155162 -0.03495332 -0.014625955 0.006241452 0.045059767 0.023230854 0.039950196 -0.019199466 0.013707947 -0.026623178 0.040238667 0.030491125 -0.037854694 -0.019637585 0.018733252 0.028428327 -0.026223218 -0.011254929 0.045598734 0.021874513 0.029449943 -0.00023075193 0.03285254 0.028431248 0.018900838 0.047684204 0.04725993 0.02365375 0.026234198 0.042042483 -0.02060677 0.039854098 0.0061872825 -0.022154475 -0.019742025 -0.02182641 0.047077958 -0.011227392 -0.0072174557 -0.0449628 -0.0035260692 -0.04365001 -0.026634479 -0.022430707 -0.009960759 -0.01902765 0.020355094 0.004000269 -0.044621732 0.030306544 -0.038621437 0.014093768 0.02311952 -0.00015180185 -0.0048789605 0.041311312 -0.025429023 0.023384187 -0.038139533 -0.036302686 0.046478797 -0.044550825 0.02953497 0.023708057 0.03276134 0.042381857 0.02673265 0.014217887 0.021421615 0.042765353 0.04632664 0.036420587 -0.017053593 -0.009471215 -0.0466699 0.0038593411 0.007990122 0.0015550964 0.012240864 0.03692552 0.0024341717 -0.014828958 0.017146613 -0.001573801 -0.03507614 -0.024533201 0.010841679 -0.003429938 0.010050166
estimated 0.0043157116 -0.042714763 -0.034250215 0.04149035 -0.03632603 -0.018819798 -0.02443769 -0.019725038 0.012224972 -0.017496683 -0.043961037 -0.028832449 -0.03110236 -0.021683205 -0.047570087 0.010937404 0.007812701 0.03418188 0.021753658 0.016552996 0.009158075 -0.03356403 0.043074217 -0.025585795 0.008543134 -0.0069484934 0.028081898 0.030011121 -0.031472467 -0.037804294 -0.02209263 -0.032748178 0.048692238 -0.042943813 0.021491978 0.016189884 0.034165967 0.0035867468 -0.015041135 -0.039102186 0.0067702904 -0.045464184 -0.022263575 0.049404148 0.02054682 0.04598466 0.03256334 -0.012150597 -0.020616949 -0.026879562 -0.007886052 0.033152137 -0.0016616583 -0.0016411431 0.012735818 -0.026069952 -0.0018961541 -0.036516536 0.014097605 0.029131878 0.048931133 -0.029068125 -0.0045543686 0.021503579 -0.033881605 0.017495368 0.044563185 0.045665074 -0.046228874 -0.032369092 -0.018968105 0.04118142 -0.0092863925 0.0026009083 -0.013666235 -0.035870753 0.039029215 -0.034631908 0.0030533075 0.015952889 -0.01276648 -0.045283973 0.012586225 0.04165441 -0.01069019 -0.03470584 -0.018751575 -0.036966216 -0.04108751 0.016508449 -0.040761482 -0.036170445 -0.042874634 -0.012746096 0.023063015 -0.025339056 0.03856734 0.009653948 0.025190305 -0.04743675
6 -0.013041057 0.025291573 -0.047638215 -0.021016909 -0.013566982 0.033405792 0.0032060966 -0.020931983 0.040533427 -0.019647611 0.0057234876 0.035430264 -0.040690828 -0.026282454 0.02623142 -0.013540484 0.0143960975 -0.031812564 0.019114342 0.0068052188 0.012866285 0.01652548 -0.008152891 -0.04660988 0.039418805 0.018422332 -0.022117198 -0.026816977 0.043125737 0.025037553 0.021672677 -0.020311845 -0.042644154 0.011793327 -0.01742234 0.039276544 0.035935726 -0.026098883 -0.022640908 -0.03506825 -0.028728796 -0.040057253 0.013095152 -0.04824684 0.0051625967 0.035500977 0.025748853 0.0078496225 -0.023456931 -0.04675324 0.03627013 0.02904686 -0.046490144 0.0073848143 -0.03808706 -0.04312668 -0.03383583 0.049075317 0.026158843 0.045398775 -0.01498853 0.037932005 -0.005742289 0.043478403 0.042795513 -0.0018999688 -0.015081335 0.0026528463 0.031413842 0.039155256 -0.043636348 0.002948381 -0.0085124485 0.008478619 0.013501409 0.022174034 0.011222433 0.019989874 -0.00950687 -0.038826205 0.009243809 0.009278487 0.03886542 0.00024525076 -0.04869155 -0.01983366 0.03495722 -0.032823525 0.0309616 -0.03765887 0.048668984 -0.0058361776 -0.04476229 -0.03450949 0.03581092 0.037662897 -0.017125227 -0.03846526 0.020488445 -0.028745724
means 0.019181881 0.045895662 -0.03227234 0.04764903 -0.042203676 -0.033583 0.002166938 0.034697864 -0.0024833567 -0.04482478 -0.038648427 0.019829217 0.04609963 -0.017162241 0.010374963 0.008732535 0.012730431 -0.04177946 0.0016205311 0.0057863593 -0.04491326 0.043141495 0.0008683093 0.045778703 -0.04431018 0.023140166 0.007104337 0.03371949 0.048168864 0.040129732 0.0029038899 -0.038080417 -0.04622258 0.027549233 0.010819413 -0.0044751056 0.0013414398 -0.03695134 0.03524864 -0.030177867 0.013879303 -0.0016942844 0.007690441 -0.021853125 -0.008903492 0.018736292 -0.02749138 0.031102065 0.024781872 0.023429561 -0.04311501 0.034298133 0.0454329 0.0025153533 0.029870752 0.016342055 0.03791653 -0.02439238 0.046721544 -0.020997692 -0.02847501 0.03395437 -0.035730757 -0.003447257 -0.03737855 -0.015720654 -0.046707917 -0.014781009 -0.025469983 0.00845357 0.048185434 0.0116607435 0.035105493 0.019883607 -0.018557869 -0.031413127 0.017946932 0.0041887537 0.012955438 -0.043668665 0.014885161 -0.0017816052 0.037107293 0.04999915 -0.046160925 -0.0027372018 0.017175127 0.042571876 -0.030641986 -0.0107386485 -0.01431061 0.012428485 -0.021745874 -0.018481337 -0.047569253 -0.030916274 -0.012349747 0.03531686 -0.015349627 -0.019065369
spread -0.02116176 0.0033095106 0.00509274 -0.031225039 0.027023468 0.04589871 -0.01856216 0.027098749 0.02548984 0.034767237 -0.013546325 -0.019240666 0.023930077 -0.036703885 -0.013329934 -0.023938263 -0.004803825 -0.038252283 0.03544649 0.02294736 0.025310043 0.04381967 0.026542436 0.015592191 -0.00306971 0.006480206 0.006345056 -0.0015310533 -0.029114414 0.045545425 0.039570104 -0.04977056 0.042410996 -0.040421687 0.0431746 -0.009365272 -0.042518426 -0.012624882 -0.03523792 -0.028659536 0.038585868 0.027409937 -0.031743277 -0.022510886 0.004535962 0.008867286 0.049175236 0.03722446 0.004424561 0.045088056 -0.019502223 0.013525154 -0.04276824 -0.04909904 0.048878793 0.040140856 -0.017860688 -0.044208825 -0.02495538 -0.008310318 -0.04971626 0.040292133 -0.0006898865 -0.039221548 -0.02114631 -0.045241643 0.047577713 0.029464636 0.0059571043 0.0075292587 0.020958338 -0.02025099 -0.041548193 -0.027537107 0.029583428 -0.024457717 -0.03340675 -0.043117512 -0.0060516 -0.018944765 0.0107104555 -0.01259464 -0.020233346 -0.04801438 0.047833096 0.03804257 -0.013035215 -0.01635312 -0.032172345 -0.03393488 0.020509843 0.02578156 -0.023055077 -0.029841233 -0.03318416 0.0287094 0.039814774 -0.024608076 -0.013849877 -0.037557054
faster -0.0039118044 -0.014248274 -0.049196612 0.00448408 -0.029486561 -0.0060474053 -0.02221775 -0.022984458 0.037324462 -0.015459977 0.00463704 0.034462992 0.026885401 -0.01282363 0.02461369 0.04580864 -0.04167237 0.046970274 -0.043200802 0.009204723 0.0058478713 -0.015345205 -0.01937052 -0.030281032 -0.0012628809 0.023624707 0.0032071471 0.038378093 0.043870185 -0.010874905 -0.017590962 -0.035427082 0.00029500574 0.00036619976 -0.022684682 0.042582873 -0.008708227 0.0003363602 -0.018810285 -0.039212346 0.008400071 0.026947308 0.01663312 -0.009355772 0.00080337375 0.0071166866 -0.024362445 0.0034535415 0.0342432 -0.03340856 -0.024060024 -0.014315784 0.029699687 0.02486166 0.025008705 0.04519129 0.031874087 0.042341303 -0.039048195 0.0084142685 0.021061469 -0.014952291 0.030629683 -0.02207371 0.008181013 -0.03713875 0.049488854 -0.046359014 0.02329943 -0.043887973 -0.021469533 -0.031421266 0.04851276 -0.041432012 0.017493453 0.0020645633 0.023355667 0.02632605 0.01789229 0.036732923 0.01657765 -0.047534324 -0.014441669 -0.0031362064 0.00058516115 -0.041759826 -0.014841009 0.03164104 -0.010977756 0.006878685 -0.027689457 0.0073446147 -0.039990414 0.029674921 -0.0057723746 -0.034080878 0.012179412 -0.03866557 0.036127772 0.033028733
further -0.022743452 0.0064790957 0.039074887 0.022716556 0.007522844 -0.012085594 -0.04314443 0.019313145 0.044408236 -0.01660223 -0.047280278 -0.027183725 -0.0009564534 -0.010297239 0.03832892 0.032071177 -0.04686898 -0.004899133 -0.020935787 0.010192156 -0.030406846 -0.0076342225 0.014920127 0.0020717494 -0.04697864 -0.0016122088 -0.048216987 0.016758908 0.038339708 0.039133977 -0.021448387 0.027705979 0.013395276 0.01728246 0.049003694 -0.013006724 0.019034576 -0.03942559 0.027257029 -0.047597647 -0.03030163 0.023745444 0.028570522 0.01699524 -0.019502986 -0.03188174 -0.034389913 0.014483046 0.013714444 -0.0018589273 -0.004931949 -0.01556455 0.049895037 0.042272117 0.0042788014 0.047580246 -0.019998908 -0.032308593 0.015000943 -0.0143013 0.0019795187 -0.012647796 0.044554774 -0.037034404 -0.010975443 -0.033018686 0.020709526 0.04717053 0.018189874 0.044999693 -0.023700012 -0.023506476 -0.046762597 -0.020200217 -0.049179364 -0.0358104 -0.03993535 0.030627582 -0.03531021 0.040389907 -0.02759701 -0.039502144 1.2945384e-05 -0.0044241324 0.03351703 0.03433602 -0.011005677 0.003514491 -0.0369815 -0.008336592 -0.0077591166 0.036811028 -0.043109037 -0.04083706 -0.031997323 -0.037748527 0.037950683 0.0451242 0.04219571 0.04342002
first 0.044171218 0.04259265 -0.03680005 0.0082225315 0.0064214095 0.020840812 -0.023290444 0.004492186 -0.028843248 -0.043223348 0.0034872182 0.030153248 -0.018021524 -0.030623866 -0.022271598 -0.013036527 0.041908894 -0.03113147 -0.0013747923 0.02612624 -0.02640822 -0.042211033 0.02422366 0.004846275 -0.031249428 -0.017698396 -0.049687564 0.022373404 -0.010294877 0.016139057 0.049342003 0.014930498 0.03516202 -0.019775068 -0.045152593 -0.020088924 0.02452704 0.03133854 0.038946543 -0.046784677 -0.0017732754 -0.049874343 -0.03024081 0.012569789 -0.0138162 -0.031247282 0.03597137 -0.024523413 0.04379077 0.030117813 0.015056495 0.012464486 -0.043266036 0.041805614 -0.0038074255 0.040961538 -0.039409243 -0.049407005 -0.024931384 0.027665686 -0.0332342 0.016500305 0.0033398494 -0.0297817 -0.041416727 0.04479525 0.02112161 0.02355199 -0.049667884 -0.0022723079 0.021294203 -0.033033885 -0.0015574805 0.032736097 -0.0459267 -0.025101949 0.003284432 -0.024567379 0.04039791 0.005186964 -0.012532532 -0.03564612 -0.031636823 -0.035266686 0.032032523 0.031397555 0.014773224 0.03162725 -0.034804605 0.04877862 0.0105269775 0.029722799 -0.03629365 0.020261135 -0.04885993 -0.021968424 -0.036286533 0.00085456297 0.035369743 -0.034164608
illness 0.008829378 -0.01483158 -0.04902724 0.024978105 0.03527135 -0.04177449 -0.012131713 0.0403187 0.008179534 -0.044674136 -0.0012534633 0.049426723 0.026158419 -0.038528204 -0.040660463 -0.03444109 -0.026580144 -0.049449276 -0.008909464 0.010689557 0.014457811 -0.04532213 -0.029121554 0.027011428 -0.046148516 -0.02957437 -0.02177651 -0.022458399 -0.038887583 0.032885876 -0.045721818 -0.02527889 -0.017961849 0.039019 -0.03740455 0.041908573 0.049760867 0.046385918 0.045442346 0.017898586 0.012738083 -0.038176905 -0.043565966 0.029039059 0.041822467 0.021267418 -0.012095261 -0.0029031262 -0.034000445 -0.01594187 -0.00065825135 0.030956175 -0.010237265 0.027949464 -0.017973922 0.036673333 -0.002609171 -0.04040066 0.020989466 -0.0152894035 -0.031306446 -0.00966097 0.022429835 -0.047377672 -0.033885527 0.02160934 0.030074488 0.02473298 0.009420812 0.014793705 0.026441727 0.0026277192 -0.045826662 -0.026983095 0.029105294 0.039956752 0.035172913 0.020889726 -0.035539784 -0.02441001 0.019966971 0.04085273 -0.040162303 0.033452358 -0.027156068 -0.046225857 0.036734346 -0.043953158 -0.012456775 -0.02161218 -0.004872132 0.0045081265 -0.049252283 -0.03633975 0.010358177 -0.047028303 0.04333366 0.040548433 -0.007614337 -0.0027121678
or -0.015141092 -0.0036400184 0.029016767 0.018060002 -0.031023944 0.011577688 0.010540176 0.034701515 -0.029750658 0.04144943 0.026597824 0.017349336 -0.03826183 -0.022420144 0.0055288896 -0.004044436 0.048145223 -0.029471053 -0.030433798 0.048694443 -0.0051663034 0.0263162 -0.034990776 0.004801143 -0.0120198615 0.0048179254 0.034602907 0.04799204 0.010663889 0.04517025 0.019034598 0.04938883 -0.018318295 -0.03827975 -0.006572403 0.0010979287 0.009764612 -0.02524401 -0.029532433 0.031170938 -0.014139019 0.0352473 -0.022171438 -0.041903783 -0.037736166 -0.02757976 -0.038885355 -0.017596029 0.04934634 0.032510664 -0.015742827 0.041317295 0.024839628 0.012685824 -0.02795868 -0.0010098442 -0.007245101 -0.04527637 0.045608137 0.04824804 -0.03996869 0.012126397 -0.038669087 -0.038609467 0.0089254975 0.020226408 -0.041484345 -0.03465084 0.032911073 0.0026524775 -0.010903489 8.511543e-05 -0.016318072 0.046972487 0.04592054 -0.010891281 -0.04952233 -0.048334002 -0.010025371 0.0076858513 0.015249442 0.041510966 0.017226074 -0.04400617 -0.027785528 -0.0031534433 0.009906482 0.020438109 0.029580954 -0.028527249 -0.049596217 -0.034223557 0.012693118 -0.022448778 0.037430216 -0.046715368 -0.03917724 0.01403651 -0.04767556 0.026814613
potentially -0.033127524 -0.0224198 0.007116616 0.018767964 0.04592521 0.008051194 -0.013538636 -0.027067125 -0.020434797 -0.011375606 -0.021679152 0.049783673 0.008656226 0.028210152 -0.03462231 0.009775829 -0.026846265 -0.03156469 -0.01969546 0.00895486 -0.011999488 0.033012416 0.019585934 -0.027924014 -0.04700608 -0.022460246 0.030106094 0.04398037 -0.0409549 -0.0065264814 0.014216077 -0.039699614 0.028261434 0.010798443 0.017375972 -0.020479728 0.04379404 -0.012880467 -0.0029207356 -0.020076549 0.045724224 -0.0063580386 0.046945665 0.019963514 -0.009934425 0.033633146 -0.03902606 -0.009539831 0.04522829 0.003113579 0.0025544986 -0.049501777 -0.019651616 -0.04068012 -0.026039112 0.023410391 0.03576846 0.029303398 -0.04182794 -0.0080735795 -0.012245465 -0.02226696 0.045580316 0.049540374 0.0270877 0.03962039 -0.0012092367 0.016896855 -0.03408458 0.033784736 0.03552684 -0.046676494 -0.0070160143 -0.0041996837 -0.03118254 0.02502774 0.005800031 -0.045102954 0.00470867 0.005768668 0.046390478 0.047924373 0.006017793 -0.04090588 -0.04778446 -0.047123577 -0.04280149 0.022622015 0.026972067 0.03813866 -0.046268594 -0.032804504 -0.0113044605 0.04838537 -0.005874358 -0.029326368 0.031888757 -0.03181207 -0.008991323 0.021092836
pre -0.0011443384 0.013879646 -0.033257626 0.019853774 0.009292316 -0.041231584 -0.00062998384 0.043389644 -0.04777185 -0.011543751 0.04272518 -0.015855778 0.025469635 0.02836201 0.049878728 -0.029377138 0.014973607 0.04516233 -0.013354886 -0.013013851 -0.00145147 -0.025495851 -0.015836932 0.022079024 -0.004806377 -0.031814624 0.008895505 0.013618458 -0.009906758 -0.009947825 -0.04788319 -0.010056984 -0.025495375 -0.024240304 -0.024419809 0.045711722 -0.04702076 0.035981547 0.017465506 -0.012808073 -0.031284645 -0.017407559 -0.0008351095 0.009250246 0.023962941 -0.03600366 -0.04291519 -0.02366674 -0.0480791 -0.04013307 0.024668206 -0.024891997 0.04377036 -0.024761653 0.022901628 -0.010959543 -0.039639782 -0.0060150623 0.026563708 -0.009567369 0.012230922 -0.035033263 -0.0039535537 0.026189152 0.00674193 0.046247866 -0.021006156 0.039752256 0.04342628 -0.041447543 -0.03726133 0.005537294 0.011523902 -0.02034012 -0.021074701 -0.013857327 -0.04380187 0.017641667 0.04231376 -0.020847166 -0.017296515 0.046021868 0.016347203 0.01649851 -0.010172166 -0.017654609 0.026493896 0.04878943 -0.0455676 0.048875812 -0.010694027 -0.025143063 0.03671005 -0.04762428 -0.025814438 0.045045126 -0.016374469 0.018499825 0.01869103 0.041002285
symptomatic -0.045405973 0.025635932 0.023310568 0.008406483 -0.033498786 -0.038284075 -0.036029078 -0.010596313 -0.012967527 0.035026554 -0.044511773 -0.037270226 0.006967306 -0.021838581 -0.04868243 -0.037895225 -0.041377805 0.015854303 -0.022288322 -0.010712337 -0.0038095228 -0.03149601 0.029953431 0.0032804236 0.04708871 -0.04171443 0.03991315 -0.0050780773 0.013450574 -0.04687437 0.007988118 -0.032333627 -0.046173334 -0.035729147 0.009251725 -0.009544361 -0.02933904 0.01984762 0.047851194 0.015946161 -0.013240982 -0.025334883 -0.045322347 0.018826317 0.002863001 0.042641077 0.014111433 0.03102285 -0.0032786243 -0.04080852 0.029978339 -0.02629484 0.048031043 -0.04756538 -0.03438573 -0.024768317 0.029553544 0.0453542 0.026542652 0.041310873 0.042182077 -0.049192954 0.04924262 -0.025656892 0.027687583 -0.020438028 -0.028754521 -0.02411784 -0.042459834 -0.006376911 0.04648867 0.028867926 -0.045286536 0.04119012 0.010133445 -0.009737216 -0.011451066 0.00084751844 0.00045365095 0.004581116 0.027635124 -0.028650189 -0.02152506 -0.036196686 -0.043012332 0.010851014 0.043719534 0.043864455 0.042160776 -0.032975066 0.0042604096 0.035164487 0.03469603 0.011597417 0.023883585 -0.025864422 -0.017480385 0.042504083 0.0049213544 0.030044664
–transmission -0.038464822 -0.005051337 -0.03658067 0.03428464 -0.0024379492 0.0056322105 -0.014454056 -0.03908968 -0.024069453 0.029604528 -0.048246026 0.014352176 0.039209966 0.011367418 0.047112096 0.020262007 -0.01604297 0.0012195222 0.043500457 -0.040834416 -0.020945573 0.020148251 -0.03501167 0.020606544 0.015357982 -0.011187483 -0.045617033 0.015447903 0.0032206886 0.041535106 -0.030181015 -0.00078713894 -0.02204652 0.00095302984 0.033799957 -0.048689604 0.016074602 -0.039810836 -0.027453173 0.048666906 0.037928913 0.044527855 0.017931987 0.039670777 -0.031065142 -0.02787385 -0.023185778 -0.042328537 -0.0014312491 -0.032016717 -0.0027398095 -0.025554001 -0.011663616 -0.014547121 -0.043011215 -0.002836801 -0.027076637 0.035104956 -0.04928228 0.011362005 0.01235652 -0.0056398623 0.035776068 0.014920007 -0.018951787 0.045283746 0.038211655 0.01822019 -0.03342235 -0.014882959 0.009722926 0.03679171 -0.029432094 0.0339087 -0.043525603 -0.03292779 0.025037799 0.005864512 -0.028210426 -0.04490403 0.02104621 0.005343031 0.028156105 0.04565272 0.042540755 -0.0017755143 0.023357067 0.0006200187 0.021380711 -0.017902862 -0.040362872 0.028301548 -0.009389341 -0.005982019 0.045998525 -0.03227599 0.018058646 -0.03767847 0.040635537 0.011493195
before 0.046787348 0.00025045872 0.044035975 -0.017510675 -0.03347361 0.018683504 0.031116042 0.02235068 -0.024969876 -0.023878371 0.048706558 -0.044083107 -0.01701666 0.01570085 -0.0447567 -0.020517636 0.026389014 0.014606167 0.032395076 0.019135777 -0.016037177 -0.0075750723 -0.014895309 0.026392963 0.021913182 0.032152507 -0.00020331144 0.020210769 -0.035499383 -0.017756999 0.005194247 0.007271208 -0.04633658 -0.036237694 0.036415506 -0.03806343 0.02678604 -0.03366722 0.033906054 -0.0365291 0.03673668 0.012491979 -0.00335256 -0.00062949583 0.015569676 0.035636235 0.014961507 -0.027126182 -0.028571213 0.0015654676 0.036069047 -0.034092523 -0.016281318 0.0133800395 -0.04613308 -0.017968703 -0.04047196 -0.046484914 -0.000794936 0.02560817 -0.0076552033 0.047930423 -0.02015747 -0.008913565 -0.023207474 0.0036085248 -0.030728519 0.02410848 -0.018841946 -0.023702264 -0.04958073 -0.012421299 -0.04598371 0.0093081705 0.02910031 0.03572383 -0.0072694644 -0.042194795 -0.017878927 -0.046997156 -0.020102048 0.024749111 -0.016361631 0.043001022 -0.026031196 -0.019037176 0.018567715 -0.022808779 0.005186986 0.023952607 0.020487312 0.020200048 -0.04229858 0.02206776 0.01703279 -0.008308601 -0.03259579 -0.025851144 0.025896776 -0.026861811
contrast 0.023794625 -0.015567206 0.02624258 -0.025471544 -0.04495063 -0.046079993 -0.027207745 0.0085456595 0.044157777 -0.009944655 -0.0015867949 -0.01794969 -0.04396081 0.02875198 0.031151544 -0.043769896 0.045567703 0.014660049 -0.04218818 -0.033205345 -0.03378792 0.004496515 0.045652878 -0.001958657 -0.03690976 -0.010998428 0.009983648 0.0012345687 0.0344751 -0.03355651 -0.045781042 -0.030964065 -0.010484267 0.023296986 0.03936744 0.041545402 0.038008 -0.012875877 0.023835447 -0.040551353 0.045400906 -0.03220292 -0.043731418 -0.010747027 -0.025992 0.04240345 -0.001641918 -0.019985605 0.012514222 0.005913127 0.043562796 0.010353614 -0.032709636 -0.03230091 0.04739554 -0.016957998 0.02257565 -0.005071711 0.038856868 -0.0057632104 0.047214035 -0.016042639 -0.007047318 0.011360966 -0.030278398 0.029916946 -0.041564573 0.029779803 0.0029578693 -0.014507927 -0.011850096 0.008577324 -0.045970656 -0.019099368 0.04881462 -0.007876314 0.005895544 0.035932455 0.006723881 -0.0051681288 0.01134982 0.0018403158 -0.0014978871 -0.0056884885 -0.007689692 -0.03309554 -0.035577536 -0.045627978 0.042681698 0.014384117 0.0336054 -0.02843461 -0.032354224 -0.029770589 -0.029597377 -0.023128008 0.01937126 0.043620337 0.042156126 -0.0086044185
we 0.048993733 0.046043348 -0.003946997 0.029628906 -0.038020015 -0.04371071 -0.0045380965 -0.019454956 0.042631615 0.048416805 0.031235125 -0.0005355105 -0.019845081 -0.013953935 -0.02593093 0.03273407 0.023041416 -0.009486247 -0.023486126 -0.040649176 0.04988979 0.0018270016 0.043914985 0.040187407 -0.044460107 0.017005984 0.0014529005 -0.0018473156 -0.022499323 -0.029540634 0.040462207 0.0036476143 0.022838976 0.015100453 0.0304855 -0.013717316 0.0038010478 0.007206656 0.0477898 -0.033503667 0.0030534156 0.040355567 0.010514509 0.040630553 0.042841766 -0.014105856 0.012682628 -0.0060484894 0.009936988 0.024980616 0.040509287 -0.018385269 0.016055431 -0.041188467 0.033553626 -0.02018267 0.04510614 0.028740492 0.030401919 0.04726055 -0.005003549 0.029823553 0.01622149 0.04038513 0.01863439 0.0056485534 0.018302668 -0.0012331121 -0.04722209 -0.024742592 -0.04841533 0.044864345 0.043431032 0.0075578205 -0.03609667 -0.047642447 -0.021531796 -0.040235303 -0.02037499 -0.03697152 -0.007244002 -0.028557504 0.0056282766 0.010538995 0.021286082 -0.018228114 0.0011485107 -0.0344247 0.029125717 -0.016253412 0.008777879 -0.037982512 -0.03447336 0.02801824 -0.03033607 0.0026372448 -0.028652167 0.013186742 -0.041181743 -0.039396547
learning 0.019274 -0.002067197 -0.035324324 -0.047866117 0.017089639 -0.020500017 -0.018336676 0.0016481765 0.0094941035 0.015047241 0.041962866 0.002625335 0.036280837 -0.040484928 -0.0053147897 0.00052370876 0.019395199 0.015773598 -0.012747515 0.012786452 -0.006169796 0.0041216835 0.039344538 0.012848582 -0.046296824 -0.007964861 0.042995665 0.007123612 -0.006947756 0.048902277 -0.02146765 -0.038266897 0.012642097 -0.019866813 -0.029282367 -0.0004627593 0.019071866 -0.047588635 0.046558682 -0.041065406 -0.0061835647 -0.028984845 -0.048553288 0.042640332 -0.017604627 -0.0077400096 0.034762073 -0.0299307 0.0046838894 -0.041082025 -0.013899051 0.013445947 0.047755424 -0.037965022 0.043403063 -0.0072632805 -0.026500965 0.043908726 -0.022474123 -0.031766906 -0.04413681 -0.02638619 0.0036201589 -0.02859335 0.025084209 -0.014126241 -0.03639524 0.016633857 0.0018851161 0.01616044 0.031257104 -0.010953285 -0.021362865 -0.012284864 0.046407375 0.0029641874 -0.021188213 0.04853526 0.048724663 -0.028900778 -0.04667863 -0.0353387 0.044086408 0.01677369 -0.028840233 0.0030386075 0.044448663 0.032784108 0.0060004964 -0.0048746243 -0.049352456 -0.0045891404 -0.02339766 -0.026654352 -0.013730574 0.03407253 0.032143164 0.030824233 0.02703366 -0.038665257
there 0.031037677 0.036666263 0.0056566224 -0.027993012 -0.031220604 -0.01354114 -0.009711433 0.0037755743 0.0038896427 -0.019305348 0.046666812 0.027760815 -0.040643085 -0.0067623965 -0.024433924 -0.046640385 0.020708572 0.03567895 -0.020945955 -0.036988497 -0.012470506 0.043784592 -0.048836447 0.0070655234 -0.0127650015 0.027538229 0.031041194 0.03466673 0.0115927085 -0.039557587 -0.010730159 -0.033267606 0.0153411515 0.012413025 0.016864445 -0.0008305423 -0.035214506 -0.006759573 0.015763666 -0.02678814 -0.016771793 -0.035507537 0.029097263 0.042780522 -0.035099722 -0.010859061 0.023422565 0.006921135 -0.019396747 8.481741e-05 0.02109978 0.032121252 -0.00932356 0.0117741 0.014222529 -0.04126493 0.040242698 0.04518533 -0.013164829 0.0058899894 -0.014757238 -0.03320334 -0.012472689 -0.026291205 -0.038589727 -0.0055174343 0.034182634 0.044956136 -0.022107292 -0.04943757 -0.009123623 -0.02530545 0.008509658 -0.042508006 0.03493781 0.022570942 0.041514326 0.008167289 0.026619803 -0.043185152 0.043791477 0.040391218 0.01694936 0.04511528 0.02395017 -0.024580097 -0.03517195 -0.041336715 0.016813252 0.03584521 0.04549283 -0.007698916 0.024482537 -0.013255596 -0.0064126253 0.044266906 -0.0011260137 0.032268275 -0.02908733 0.015741672
people 0.04637908 0.012287747 0.0143016465 0.024417114 -0.02581495 -0.039750777 0.027631152 0.049618315 -0.0026776306 -0.037568964 0.00742333 0.03553733 0.0013877973 0.035403762 -0.04342542 -0.015812814 0.013935577 0.040477756 0.020012889 -0.024498641 0.048488643 0.040680114 -0.012738764 0.043456826 0.029933635 -0.013086021 -0.0342945 -0.04637908 -0.001478672 0.03266604 -0.025990797 -0.026192272 0.033188973 0.029514465 -0.01534754 0.024938826 -0.03959187 0.014726017 0.02801064 -0.0015100725 0.016871717 0.025656927 0.04519434 -0.042278256 0.015844274 0.010033894 -0.045538735 0.019705866 -0.032219708 0.038673352 -0.047594644 0.0035168044 -0.034440838 0.023452487 0.049826194 -0.02837807 0.034026694 -0.039535116 0.0011168346 -0.039566614 -0.030139137 -0.02395841 0.032304797 -0.049376454 0.026878301 -0.038232576 0.039757084 0.028574083 -0.010567106 -0.0025351867 0.006342031 -0.01920755 0.0487707 -0.030561114 -0.01544819 0.035849858 0.013697159 0.0413162 0.029989842 -0.0477165 -0.030843962 0.03488723 0.0074451454 0.04136807 0.04733557 -0.049238145 0.03458314 -0.046437215 -0.0015683658 -0.020162856 -0.048892118 0.04878943 0.015686575 -0.0374107 -0.048355915 -0.022273613 0.026860628 -0.037231874 -0.016056158 0.04433525
who 0.0389701 0.035647597 0.018132273 0.047845636 0.0150003545 0.021340381 0.018167067 -0.013493549 -0.025699258 -0.042999327 -0.024965882 0.024428014 -0.0076299906 0.0072599053 0.02896965 0.0027043335 0.0034349933 0.013890576 -0.018971933 0.009004794 0.046995584 0.009863973 0.008680142 0.029851008 0.015653063 0.004199207 0.022665884 0.03776182 -0.017366935 -0.017733477 -0.004145466 -0.019470299 0.03987429 -0.003109049 -0.024831725 -0.00047339126 0.025778186 -0.014349721 -0.024822533 0.0061833262 0.025031652 0.048736285 0.0059647337 0.036678124 0.036416184 0.044076893 -0.034785725 -0.0053253546 -0.03192537 0.026673425 0.04030663 0.016750108 0.011531234 0.049766336 -0.02857014 0.01919419 -0.006735109 0.021918986 -0.0065790415 0.008735739 0.026399959 0.03803296 0.0068046227 0.010572158 0.048795093 -0.0326041 -0.0137550235 -0.029223204 0.042569306 0.028342161 -0.021117568 -0.04936881 0.0054524913 0.008520711 0.046382 -0.02395544 0.009866167 -0.028700221 -0.021881832 0.0364852 -0.0005737543 0.03274167 0.04485296 -0.03138249 -0.0061848536 0.028183315 -0.018881977 -0.025780667 -0.027012719 -0.015909862 0.047213543 -0.019073594 0.009777367 0.029862251 0.022155475 -0.044427454 0.014498342 -0.028957082 0.035279397 0.03203908
shed 0.04281677 -0.02443613 0.036708895 -0.03944211 -0.027999997 -0.04586463 -0.017081715 0.03181317 -0.006687939 0.024235878 -0.004187513 -0.0060051456 -0.010030173 -0.039039552 0.030166734 -0.014102638 0.01639862 0.025828864 0.04087 -0.028616643 -0.044175506 0.0056561828 -0.045842003 -0.04214258 0.006703295 0.010200523 -0.039746262 0.01981536 0.0026016943 -0.04549667 -0.017056037 -0.007990085 -0.009019554 -0.04899322 -0.0385646 -0.044775702 0.0386994 -0.008976709 0.03725538 -0.013434313 0.041907977 0.0070186257 -0.048009492 0.0497582 0.014279712 -0.012167729 -0.003391862 -0.029125571 -0.0019793399 -0.049825728 -0.019188022 -0.044595517 0.03891189 -0.036273908 -0.019392645 0.026718523 0.015986253 0.013792384 0.045722272 -0.0052754506 -0.033997253 0.0041303523 0.0043019652 0.012694862 -0.03531333 -0.04199339 0.04819313 -0.029391004 -0.036033593 0.04982019 -0.00077050924 0.0016269684 0.026507918 0.042257633 0.031487588 -0.030349148 6.9856644e-05 0.041994814 -0.033730973 0.009640146 0.014075164 0.011906911 -0.026231695 0.031194616 0.008905984 0.03749616 -0.018837094 -0.035544515 -0.021792924 0.017101195 0.025679205 0.03843626 0.034830164 0.012792338 0.038805936 0.044885162 -0.0063330755 0.028716255 -0.04301821 0.0476056
24 -0.037378073 -0.041929256 -0.0063652024 0.013918724 0.004606176 0.010109235 -0.013138652 0.021329034 -0.0053731315 0.01454911 0.0077952966 0.013782885 0.0149067305 -0.03275435 0.010880113 0.016675975 0.039566528 0.010883868 -0.0290609 0.031639885 0.028980602 0.040351663 -0.042295743 -0.037373494 -0.037989117 0.0018615127 0.04484495 -0.03272734 0.034182932 -0.03485428 0.0312658 -0.03586632 -0.032235958 -0.03778683 -0.005213309 -0.0026535764 -0.0077577606 0.0020315424 -0.018160332 -0.04535028 0.01798134 -0.019091785 0.04836991 -0.032227207 -0.0049842 -0.020359064 -0.0106468685 0.007540535 -0.04131334 0.038294222 0.0019643307 -0.034033574 -0.018298246 -0.035487078 0.036026347 -0.0061192885 -0.038404703 0.035128 0.014063302 0.0065598264 -0.029462373 -0.027967347 -0.013451301 -0.023118854 -0.028070379 0.032777455 -0.015213978 -0.015085898 0.030771267 -0.015254594 -0.038975336 -0.0001966469 0.04724394 0.023612525 -0.026398886 0.04063305 0.01326618 -0.04917121 0.0245356 0.02971745 -0.045509506 -0.045686413 0.039540697 0.029012825 -0.0074457303 0.024295125 -0.015324019 -0.015146803 0.027599167 -0.02404194 -0.0009940267 0.04723103 0.0074123032 0.049916577 -0.019537782 0.0478377 -0.030065848 0.049864877 0.035293367 -0.014604341
48 -0.01746329 0.008993316 -0.018237185 -0.0436646 0.021572638 0.026446845 -0.034474682 -0.018371642 0.044665698 -0.0019821636 -0.034651496 -0.030298699 0.026684497 0.029702041 -0.007973649 0.04630473 0.014228631 -0.033729218 -0.049903143 0.036367808 0.00800078 -0.03402412 -0.0073450916 0.046148274 -0.016043019 0.04117587 -0.037785493 -0.046326187 0.04989398 0.038943317 0.028241131 0.03637782 0.035450626 -0.033344615 0.02215663 0.04660436 -0.035676382 0.041774813 0.038078915 -0.006131947 0.04545674 0.04610989 -0.0012949593 -0.010324143 0.0015341043 -0.042073537 -0.03802694 -0.003224492 -0.024370408 0.030525532 -0.046596467 0.021582056 0.037663076 0.044289116 -0.0015262365 0.027726244 0.04408774 -0.03031603 0.0145615 -0.0061656833 -0.0121158585 -0.002545964 0.0046343803 -0.021796191 -0.037398588 -0.021266436 0.03259356 0.005583264 -0.0070916787 0.023298468 -0.033692397 -0.037770737 0.000951387 -0.0180961 0.04633646 0.011929534 -0.0061466694 0.022075046 0.013990287 0.024291407 -0.0014013648 0.015591215 -0.03415358 0.029593203 -0.010961078 0.0035256632 0.03495959 0.004455257 0.015314732 -0.0016993396 -0.008356392 -0.04176414 -0.04369527 -0.0021186695 0.046933424 0.031499352 -0.014180876 -0.00906378 0.030274127 0.0068579204
hours -0.010712646 -0.04917872 0.031951513 -0.034642912 0.04750372 0.013088439 -0.029633248 -0.0034667253 0.031712662 0.014177229 0.011676706 0.03777531 0.015359942 0.037342522 -0.002120901 -0.04844108 -0.023831917 -0.0060346834 -0.030657971 -0.010706354 -0.0013956912 0.019693162 0.0022140518 0.011749495 -0.026523804 0.010987531 0.0010639913 0.0070790276 0.04278711 0.004167665 -0.023275746 -0.020227684 -0.033982374 0.009935308 0.041190792 -0.012700725 -0.024539113 -0.03865838 -0.01224605 -0.0050175674 0.003954362 0.0071963444 0.002328314 -0.028341247 -0.04017247 0.016023267 -0.03818395 -0.044486452 0.046811406 0.0073860995 -0.039395083 -0.047931995 -0.0031486265 0.016858313 0.0386847 -0.040961932 0.0036294833 -0.020380152 -0.0044544823 -0.040276967 0.011688948 -0.043322828 -0.039687168 0.012400497 -0.00330434 0.04173961 0.049237955 -0.024266398 0.015812505 -0.012560904 -0.0015565641 -0.017117154 0.043220732 0.02622578 0.014559116 0.004811287 -0.008343734 -0.01241393 0.042679098 -0.028361274 -0.018264093 0.027673494 0.00785353 0.038508404 -0.039815187 -0.024537181 -0.0057260767 -0.0015485287 0.009621214 -0.0050241724 -0.034234777 -0.011705805 0.03568599 0.030643854 -0.018618025 -0.019618964 -0.016018689 -0.017052673 -0.0062565915 -0.005943071
prior -0.025674272 -0.045365777 -0.030052567 0.04610883 -0.04294255 0.036444847 0.0039592385 0.0036936514 -0.045132257 -0.029922986 -0.0011689179 0.010704983 0.0138259195 0.04030918 0.019116137 0.035580207 0.048737776 -0.03262452 0.0021698363 -0.03516563 0.043755863 -0.0032589063 0.03738309 -0.015261162 -0.03827398 -0.025790954 0.0090432055 0.029312495 -0.0064465404 0.018128727 -0.009530973 0.02959976 -0.03486464 0.024383236 -0.025436891 -0.016391814 -0.026647007 0.04925296 0.014589194 -0.049889516 0.042162392 0.0051245913 -0.04965725 -0.04404856 -0.045510102 0.033970837 -0.004455708 0.049826633 -0.024579836 0.047767486 0.0037117824 -0.038720667 -0.04327146 0.046175305 -0.0035316572 0.018871818 -0.0014682785 0.037412826 -0.011095703 -0.007424332 0.0211679 0.031921413 0.046612117 -0.0037221536 -0.015511941 0.0002508983 0.040991273 -0.035559345 0.021066438 0.04272988 0.037213136 0.028206613 0.014322389 0.03125565 0.0013566501 0.02893417 -0.025040662 -0.014288653 -0.015058864 0.008551169 -0.013721764 -0.02838924 0.020324592 0.027850378 0.025447074 -0.012786042 0.041470293 0.048356775 0.014177773 0.03881785 0.015939225 0.016457032 -0.047935557 -0.027248574 0.025833894 0.037931178 -0.023020769 -0.034689926 -0.01377983 0.041376878
symptom -0.047849573 -0.011608135 -0.045781482 -2.0682812e-05 0.049377095 -0.045517933 -0.005971767 0.048900496 -0.035065554 -0.04695729 -0.0016339645 0.035474744 -0.02694651 0.035481405 0.026649978 0.019287113 -0.04310886 -0.027216231 0.015797522 0.00484867 0.024713192 -0.044608604 0.004702259 -0.025660086 -0.0042890906 -0.033395637 -0.018508922 0.009174883 0.007968236 0.0015324354 -0.009773292 -0.04764086 -0.011630356 -0.004587937 -0.016970776 0.031597648 0.005259894 0.0028833635 0.021644596 -0.0074655786 0.018382337 0.01743767 0.028701339 0.020958927 -0.0011009462 -0.038519632 0.022716787 0.0026107319 0.046779145 -0.021420026 0.03358582 0.0050124303 -0.03195262 -0.025239408 -0.04095342 -0.033406593 0.013212752 0.005713366 -0.01253742 0.048955325 0.0034930483 0.029962312 0.04585452 0.024338517 -0.04679947 0.032873835 0.024427902 0.03104813 -0.040733326 0.0029745214 -0.032521714 0.01796471 -0.037085854 0.04282633 0.028636102 -0.017468192 -0.049997248 0.043424513 0.025807414 0.048832882 0.007494092 0.014376733 -0.04680097 0.037509706 -0.011402227 0.041651282 -0.021802878 0.047550093 0.011678636 0.024967503 0.014471654 0.006232105 0.02978966 0.030702185 0.037070323 -0.007636547 -0.022339655 0.03046583 -0.014742374 -0.03940438
onset -0.0010931604 0.017824959 0.04987805 -0.00028754398 0.046245407 0.036253165 -0.032762803 0.006856106 -0.039138235 -0.029365612 -0.035236098 -0.026064469 -0.005149316 0.0085393675 0.036910955 -0.04123987 0.0035662279 0.047929082 -0.03605167 -0.0065936074 -0.036624648 0.04052485 0.009813227 -0.007841419 0.045732353 0.049063753 -0.011356629 0.02809633 0.012257587 -0.026516378 -0.035512187 0.005856298 0.036032405 -0.048774567 -0.036418654 -0.010668375 0.009064592 0.047149528 0.047768917 0.0067807212 -0.029715741 -0.040641833 0.014494326 0.036865342 -0.005669676 0.03191663 0.045199405 -0.031372383 -0.036762215 -0.02951175 0.009570934 -0.03007834 0.032972682 0.005195141 0.036049176 0.030198667 -0.017925788 0.031729344 -0.01174929 -0.025586033 0.032325927 0.010912716 0.010816146 0.018149402 -1.0062009e-05 -0.022583663 0.023902822 -0.014138032 -0.004640162 0.026946846 -0.016162753 -0.0028981194 0.019549284 0.043288004 0.004838802 0.024291422 -0.0472353 -0.007153284 -0.030156458 -0.028900063 -0.046155464 -0.01796044 0.041421976 -0.04698652 0.025608864 0.0129630305 -0.008048188 -0.040584363 0.04340193 -0.022038937 0.029780436 0.006800674 -0.01218041 -0.03855761 -0.021513844 -0.008421194 0.032284882 0.025826465 -0.0033502951 -0.025985098
at 0.041469004 0.01744486 -0.018278409 -0.02607863 -0.012253962 -0.01145649 0.014264587 -0.04443301 -0.006955959 -0.019842803 0.034876835 -0.0053113215 0.017705094 -0.0066944845 0.0031236187 -0.02027427 0.013758134 -0.047634732 0.028969515 -0.02587446 0.016321052 -0.040671803 0.0313507 0.042492483 0.03951999 0.0031546466 0.039202694 -0.006352853 -0.027155483 -0.048606884 0.04602978 -0.04508685 0.04504705 0.0053923354 0.012239348 -0.04713751 -0.02944833 -0.015453242 0.04712149 -0.04278369 0.044248525 -0.048390687 -0.04957613 -0.03448359 0.041250553 0.04718015 0.008019399 -0.027611542 0.041238952 0.02071673 -0.009100102 -0.009090565 -0.04877868 -0.023677206 0.020808969 0.018912796 -0.014586329 -0.042992998 -0.030780554 0.00029383972 -0.017029833 -0.03266573 0.039594438 0.008999456 -0.03264593 -0.012317419 -0.023952795 -0.015559994 -0.03485626 0.013393525 0.02217574 0.04108921 -0.0120193735 -0.009426735 0.020299766 0.028625239 -0.012099825 -0.028220857 -0.01696062 0.025291566 -0.030682756 0.0021943673 0.009160243 -0.020399464 0.046657134 -0.020770645 0.011390485 0.03893515 -0.0037654415 -0.0032164678 0.033435415 -0.019760717 0.030416075 -0.0065065995 0.00030908734 -0.026126815 0.030607734 -0.030194176 -0.020763649 0.022081029
present 0.02481011 0.00969249 -0.008178771 -0.031586397 -0.044735756 0.03709879 0.043198537 0.004656516 -0.03448472 -0.03532944 0.041846637 0.030980434 -0.046195626 0.03475057 0.0013479218 0.03190765 0.023348156 0.037349652 -0.04654056 -0.034965027 -0.0031432994 -0.022985613 -0.004269026 -0.034988187 0.027450155 -0.0031355135 -0.013667978 -0.035685122 -0.017060578 0.025072027 -0.03754847 -0.019954015 -0.043648567 -0.022798657 0.012274288 -0.014395285 0.023025822 -0.02837143 0.010544576 0.042077962 -0.028032029 0.018138122 -0.040662132 0.014742922 0.0058140866 -0.042402733 -0.010411847 -0.030370355 0.035493348 0.028177049 -0.035663854 -0.009761393 -0.0061291344 0.026240122 -0.030261302 0.028245773 -0.009023607 -0.008615516 -0.01998489 0.013634477 0.0025136843 -0.040334143 0.0065209866 -0.011998437 -0.042766035 0.022399712 -0.049291123 -0.016872656 -0.040952135 -0.0418941 -0.0026095733 -0.033274785 -0.023903644 -0.0012339465 0.019140098 -0.022967745 -0.009708513 -0.04213778 0.033349562 -0.022464145 -0.022432327 -0.014636479 0.04624622 0.003948521 -0.017010532 -0.0142498985 -0.014351796 -0.013442397 -0.034342505 0.009423874 -0.016303528 -0.0027646646 0.0050419345 -0.040749334 -0.00069282204 0.028875183 -0.022277439 -0.006960761 -0.04779918 -0.043265283
does 0.04554006 0.0103678815 -0.030424012 0.02870823 -0.048087753 -0.043677855 -0.045449473 -0.017928708 0.04557674 -0.046935286 -0.0060279854 -0.020253027 -0.007217873 -0.0072053894 0.01525018 0.04490174 0.029891524 0.037302006 -0.02303586 0.015525591 0.024314906 0.031551685 0.027380977 -0.032717694 0.029551912 0.017828215 0.020801272 0.031898033 -0.036322236 0.047721494 -0.012149908 0.0012302175 -0.039310563 -0.029836679 0.037029814 -0.025455726 0.036043953 -0.04229944 -0.01325842 -0.031861532 -0.018990004 -0.043935396 0.010512698 -0.04014207 -0.0077846535 0.048819315 -0.008331131 -0.03264915 -0.040161908 -0.009537686 -0.024079407 -0.022127712 0.010255992 -0.027915943 -0.037859045 -0.036251307 0.0052413456 0.007879734 0.024498645 -0.03308046 -0.0073788874 0.028091434 -0.03999243 0.00869409 -0.029805852 0.04924867 0.025999341 0.024866749 0.048865173 -0.03183607 -0.0065252893 -0.03492247 -0.011503257 -0.027108897 0.02744243 0.007206343 -0.017855037 -0.03191717 0.01266757 -0.006819438 -0.009994816 -0.015258264 -0.015667416 0.0049829967 -0.016727496 0.045379374 0.04780415 -0.03210888 0.026030052 0.012517665 -0.030885924 -0.02352227 0.030142013 0.03206343 -0.026692498 -0.017832745 -0.0387306 0.016661573 -0.033971444 -0.010513604
